{"learner":{"attributes":{"scikit_learn":"{\"_estimator_type\": \"regressor\"}"},"feature_names":[],"feature_types":[],"gradient_booster":{"model":{"gbtree_model_param":{"num_parallel_tree":"1","num_trees":"500"},"iteration_indptr":[0,1,2,3,4,5,6,7,8,9,10,11,12,13,14,15,16,17,18,19,20,21,22,23,24,25,26,27,28,29,30,31,32,33,34,35,36,37,38,39,40,41,42,43,44,45,46,47,48,49,50,51,52,53,54,55,56,57,58,59,60,61,62,63,64,65,66,67,68,69,70,71,72,73,74,75,76,77,78,79,80,81,82,83,84,85,86,87,88,89,90,91,92,93,94,95,96,97,98,99,100,101,102,103,104,105,106,107,108,109,110,111,112,113,114,115,116,117,118,119,120,121,122,123,124,125,126,127,128,129,130,131,132,133,134,135,136,137,138,139,140,141,142,143,144,145,146,147,148,149,150,151,152,153,154,155,156,157,158,159,160,161,162,163,164,165,166,167,168,169,170,171,172,173,174,175,176,177,178,179,180,181,182,183,184,185,186,187,188,189,190,191,192,193,194,195,196,197,198,199,200,201,202,203,204,205,206,207,208,209,210,211,212,213,214,215,216,217,218,219,220,221,222,223,224,225,226,227,228,229,230,231,232,233,234,235,236,237,238,239,240,241,242,243,244,245,246,247,248,249,250,251,252,253,254,255,256,257,258,259,260,261,262,263,264,265,266,267,268,269,270,271,272,273,274,275,276,277,278,279,280,281,282,283,284,285,286,287,288,289,290,291,292,293,294,295,296,297,298,299,300,301,302,303,304,305,306,307,308,309,310,311,312,313,314,315,316,317,318,319,320,321,322,323,324,325,326,327,328,329,330,331,332,333,334,335,336,337,338,339,340,341,342,343,344,345,346,347,348,349,350,351,352,353,354,355,356,357,358,359,360,361,362,363,364,365,366,367,368,369,370,371,372,373,374,375,376,377,378,379,380,381,382,383,384,385,386,387,388,389,390,391,392,393,394,395,396,397,398,399,400,401,402,403,404,405,406,407,408,409,410,411,412,413,414,415,416,417,418,419,420,421,422,423,424,425,426,427,428,429,430,431,432,433,434,435,436,437,438,439,440,441,442,443,444,445,446,447,448,449,450,451,452,453,454,455,456,457,458,459,460,461,462,463,464,465,466,467,468,469,470,471,472,473,474,475,476,477,478,479,480,481,482,483,484,485,486,487,488,489,490,491,492,493,494,495,496,497,498,499,500],"tree_info":[0,0,0,0,0,0,0,0,0,0,0,0,0,0,0,0,0,0,0,0,0,0,0,0,0,0,0,0,0,0,0,0,0,0,0,0,0,0,0,0,0,0,0,0,0,0,0,0,0,0,0,0,0,0,0,0,0,0,0,0,0,0,0,0,0,0,0,0,0,0,0,0,0,0,0,0,0,0,0,0,0,0,0,0,0,0,0,0,0,0,0,0,0,0,0,0,0,0,0,0,0,0,0,0,0,0,0,0,0,0,0,0,0,0,0,0,0,0,0,0,0,0,0,0,0,0,0,0,0,0,0,0,0,0,0,0,0,0,0,0,0,0,0,0,0,0,0,0,0,0,0,0,0,0,0,0,0,0,0,0,0,0,0,0,0,0,0,0,0,0,0,0,0,0,0,0,0,0,0,0,0,0,0,0,0,0,0,0,0,0,0,0,0,0,0,0,0,0,0,0,0,0,0,0,0,0,0,0,0,0,0,0,0,0,0,0,0,0,0,0,0,0,0,0,0,0,0,0,0,0,0,0,0,0,0,0,0,0,0,0,0,0,0,0,0,0,0,0,0,0,0,0,0,0,0,0,0,0,0,0,0,0,0,0,0,0,0,0,0,0,0,0,0,0,0,0,0,0,0,0,0,0,0,0,0,0,0,0,0,0,0,0,0,0,0,0,0,0,0,0,0,0,0,0,0,0,0,0,0,0,0,0,0,0,0,0,0,0,0,0,0,0,0,0,0,0,0,0,0,0,0,0,0,0,0,0,0,0,0,0,0,0,0,0,0,0,0,0,0,0,0,0,0,0,0,0,0,0,0,0,0,0,0,0,0,0,0,0,0,0,0,0,0,0,0,0,0,0,0,0,0,0,0,0,0,0,0,0,0,0,0,0,0,0,0,0,0,0,0,0,0,0,0,0,0,0,0,0,0,0,0,0,0,0,0,0,0,0,0,0,0,0,0,0,0,0,0,0,0,0,0,0,0,0,0,0,0,0,0,0,0,0,0,0,0,0,0,0,0,0,0,0,0,0,0,0,0,0,0,0,0,0,0,0,0,0,0,0,0,0,0,0,0,0,0,0,0,0,0,0,0,0,0,0,0,0,0,0,0,0,0,0,0,0,0,0,0,0,0,0],"trees":[{"base_weights":[4.9444605E-3,-7.044192E4,1.9858197E5,8.1190945E4,-9.989862E4,1.5088233E5,3.9614728E5,5.542958E3,1.5223395E5,-1.5860989E5,-4.3844605E4,3.072049E5,9.824924E4,5.7213544E5,3.5172497E5,1.53420205E4,-2.3064644E5,9.952668E4,1.9738253E5,-1.4811922E5,-2.782865E5,8.0882275E3,-7.205222E4,2.5373E5,3.7558306E5,1.7603147E5,7.0463266E4,3.7497094E5,6.038018E5,2.9752228E5,4.6754622E5,-4.3395234E4,4.48492E4,-2.6368348E4,-1.941426E5,1.13157664E5,5.4805347E3,1.805837E5,3.358758E5,-1.0789797E5,-1.7104103E5,-2.8078362E5,-1.3082891E4,-6.524259E3,1.22081086E5,-6.3292168E4,-1.7959242E5,3.0508038E5,1.8003222E5,3.125046E5,4.2027206E5,2.3970197E5,4.0072164E4,-1.1126167E3,1.0458673E5,2.309057E5,4.4824756E5,6.57024E5,5.379305E5,4.0524494E5,2.589593E5,3.2321497E5,5.0120272E5,-9.256325E2,-6.944808E3,-1.8923157E3,6.9859062E3,-1.9619953E4,-3.9477031E3,1.4209281E4,5.9388047E3,-2.7589226E3,4.5509116E3,2.3233371E4,1.2239433E4,4.6429246E4,2.0945684E4,-6.2823315E3,-1.3080682E4,-1.9123715E4,-1.3885677E4,-3.0641334E4,-2.5830828E4,2.8025943E4,-1.4200361E4,7.669398E3,-3.911981E3,9.340515E3,3.496933E4,-8.7671875E3,-3.2586877E3,-6.9538813E3,-1.8826404E4,2.150097E4,3.3880027E4,1.6485768E4,5.6776656E4,2.9407129E4,5.4023574E4,1.9034754E4,4.321646E4,1.985594E4,3.149881E4,6.7034995E3,-5.960886E3,3.0493E3,-6.8123306E3,6.3374214E3,1.6366227E4,2.533001E4,-1.6447703E4,5.230444E4,2.898856E4,5.8986887E4,7.4145875E4,5.5698082E4,3.0569912E4,4.6098707E4,2.5813639E4,1.821547E4,3.0955604E4,4.628767E4,2.7208607E4,3.657372E4,5.5013926E4],"categories":[],"categories_nodes":[],"categories_segments":[],"categories_sizes":[],"default_left":[0,0,0,0,0,0,0,0,0,0,0,0,0,0,0,0,0,0,0,0,0,0,0,0,0,0,0,0,0,0,0,0,0,0,0,0,0,0,0,0,0,0,0,0,0,0,0,0,0,0,0,0,0,0,0,0,0,0,0,0,0,0,0,0,0,0,0,0,0,0,0,0,0,0,0,0,0,0,0,0,0,0,0,0,0,0,0,0,0,0,0,0,0,0,0,0,0,0,0,0,0,0,0,0,0,0,0,0,0,0,0,0,0,0,0,0,0,0,0,0,0,0,0,0,0],"id":0,"left_children":[1,3,5,7,9,11,13,15,17,19,21,23,25,27,29,31,33,35,37,39,41,43,45,47,49,51,53,55,57,59,61,63,65,-1,67,69,71,73,75,77,79,81,83,85,87,89,91,93,95,97,99,101,103,105,107,109,111,113,115,117,119,121,123,-1,-1,-1,-1,-1,-1,-1,-1,-1,-1,-1,-1,-1,-1,-1,-1,-1,-1,-1,-1,-1,-1,-1,-1,-1,-1,-1,-1,-1,-1,-1,-1,-1,-1,-1,-1,-1,-1,-1,-1,-1,-1,-1,-1,-1,-1,-1,-1,-1,-1,-1,-1,-1,-1,-1,-1,-1,-1,-1,-1,-1,-1],"loss_changes":[6.756444E14,1.5925591E14,1.191229E14,3.1169865E13,9.824268E13,8.380226E13,1.902278E13,6.5071E12,7.0979074E12,1.826502E13,2.2375486E13,9.28733E12,1.6465009E13,2.8578645E12,1.2203093E13,4.6797737E12,8.387769E10,1.7710228E12,3.6850526E12,1.2342998E13,7.7380714E11,8.957368E12,9.313121E12,5.4059713E12,3.0371123E12,1.7355531E13,1.3724058E13,6.460151E11,1.1330325E12,5.4698757E12,2.874063E12,8.024997E11,2.8674254E12,0E0,1.0388505E10,1.8694506E12,2.3423302E11,4.3018166E12,2.7112862E12,5.020586E12,5.5237474E12,5.907845E11,4.9361276E11,1.2933698E13,3.9553283E12,6.849697E12,6.9789653E11,2.5057275E12,3.4071967E12,1.8141204E12,1.7087678E12,4.168593E12,1.7268002E12,3.8460913E12,9.253473E12,2.7187518E11,3.932464E11,8.667865E11,6.9242926E11,2.767452E12,3.7947E12,7.3808845E11,3.14655E12,0E0,0E0,0E0,0E0,0E0,0E0,0E0,0E0,0E0,0E0,0E0,0E0,0E0,0E0,0E0,0E0,0E0,0E0,0E0,0E0,0E0,0E0,0E0,0E0,0E0,0E0,0E0,0E0,0E0,0E0,0E0,0E0,0E0,0E0,0E0,0E0,0E0,0E0,0E0,0E0,0E0,0E0,0E0,0E0,0E0,0E0,0E0,0E0,0E0,0E0,0E0,0E0,0E0,0E0,0E0,0E0,0E0,0E0,0E0,0E0,0E0,0E0],"parents":[2147483647,0,0,1,1,2,2,3,3,4,4,5,5,6,6,7,7,8,8,9,9,10,10,11,11,12,12,13,13,14,14,15,15,16,16,17,17,18,18,19,19,20,20,21,21,22,22,23,23,24,24,25,25,26,26,27,27,28,28,29,29,30,30,31,31,32,32,34,34,35,35,36,36,37,37,38,38,39,39,40,40,41,41,42,42,43,43,44,44,45,45,46,46,47,47,48,48,49,49,50,50,51,51,52,52,53,53,54,54,55,55,56,56,57,57,58,58,59,59,60,60,61,61,62,62],"right_children":[2,4,6,8,10,12,14,16,18,20,22,24,26,28,30,32,34,36,38,40,42,44,46,48,50,52,54,56,58,60,62,64,66,-1,68,70,72,74,76,78,80,82,84,86,88,90,92,94,96,98,100,102,104,106,108,110,112,114,116,118,120,122,124,-1,-1,-1,-1,-1,-1,-1,-1,-1,-1,-1,-1,-1,-1,-1,-1,-1,-1,-1,-1,-1,-1,-1,-1,-1,-1,-1,-1,-1,-1,-1,-1,-1,-1,-1,-1,-1,-1,-1,-1,-1,-1,-1,-1,-1,-1,-1,-1,-1,-1,-1,-1,-1,-1,-1,-1,-1,-1,-1,-1,-1,-1],"split_conditions":[4.5556256E-1,-1.1387751E0,1.8542675E0,-4.3890205E-1,-4.565665E-1,-7.6001376E-1,-7.6001376E-1,5.4341245E0,-3.0179223E-1,5.4341245E0,-1.8694937E-2,9.774674E-1,-8.8806313E-1,-3.133261E-1,2.8129666E0,-9.848948E-1,-1.3124905E0,9.2329E0,1.6789135E0,2.0273414E-2,7.2768364E0,4.772882E0,5.0191607E0,-1.1261942E0,1.456664E0,1.6353084E-1,-9.227415E-2,-3.713107E-1,-1.1387751E0,-8.8806313E-1,8.116028E-1,3.5814917E0,-4.7894037E-1,-2.6368348E4,9.291833E0,-1.4122533E0,-5.2248806E-1,1.4967097E0,-1.3389089E0,-9.745195E-1,7.0946015E-2,-1.2418326E0,-4.982014E-1,-9.5932406E-1,-8.264985E-1,-5.31956E-3,-1.5928843E0,-4.9237844E-1,1.6304594E1,7.606728E-1,-1.8660724E0,1.1075422E0,1.7997972E0,7.957766E-1,1.028855E0,-3.2382485E-1,-5.290251E-2,-1.884984E-1,5.9481E-1,1.8365002E-1,1.0534799E0,7.359291E-2,-6.616152E-2,-9.256325E2,-6.944808E3,-1.8923157E3,6.9859062E3,-1.9619953E4,-3.9477031E3,1.4209281E4,5.9388047E3,-2.7589226E3,4.5509116E3,2.3233371E4,1.2239433E4,4.6429246E4,2.0945684E4,-6.2823315E3,-1.3080682E4,-1.9123715E4,-1.3885677E4,-3.0641334E4,-2.5830828E4,2.8025943E4,-1.4200361E4,7.669398E3,-3.911981E3,9.340515E3,3.496933E4,-8.7671875E3,-3.2586877E3,-6.9538813E3,-1.8826404E4,2.150097E4,3.3880027E4,1.6485768E4,5.6776656E4,2.9407129E4,5.4023574E4,1.9034754E4,4.321646E4,1.985594E4,3.149881E4,6.7034995E3,-5.960886E3,3.0493E3,-6.8123306E3,6.3374214E3,1.6366227E4,2.533001E4,-1.6447703E4,5.230444E4,2.898856E4,5.8986887E4,7.4145875E4,5.5698082E4,3.0569912E4,4.6098707E4,2.5813639E4,1.821547E4,3.0955604E4,4.628767E4,2.7208607E4,3.657372E4,5.5013926E4],"split_indices":[5,1,5,5,5,1,1,14,6,14,1,5,2,6,5,5,5,120,2,1,6,299,291,1,4,1,2,0,1,2,45,273,6,0,168,1,6,2,1,2,2,5,7,2,1,5,0,0,128,0,1,5,46,1,5,6,0,0,0,1,21,1,6,0,0,0,0,0,0,0,0,0,0,0,0,0,0,0,0,0,0,0,0,0,0,0,0,0,0,0,0,0,0,0,0,0,0,0,0,0,0,0,0,0,0,0,0,0,0,0,0,0,0,0,0,0,0,0,0,0,0,0,0,0,0],"split_type":[0,0,0,0,0,0,0,0,0,0,0,0,0,0,0,0,0,0,0,0,0,0,0,0,0,0,0,0,0,0,0,0,0,0,0,0,0,0,0,0,0,0,0,0,0,0,0,0,0,0,0,0,0,0,0,0,0,0,0,0,0,0,0,0,0,0,0,0,0,0,0,0,0,0,0,0,0,0,0,0,0,0,0,0,0,0,0,0,0,0,0,0,0,0,0,0,0,0,0,0,0,0,0,0,0,0,0,0,0,0,0,0,0,0,0,0,0,0,0,0,0,0,0,0,0],"sum_hessian":[4.8298E4,3.5652E4,1.2646E4,5.799E3,2.9853E4,1.0188E4,2.458E3,2.809E3,2.99E3,1.458E4,1.5273E4,2.565E3,7.623E3,4.93E2,1.965E3,2.698E3,1.11E2,1.381E3,1.609E3,1.3407E4,1.173E3,5.376E3,9.897E3,1.442E3,1.123E3,2.005E3,5.618E3,7E1,4.23E2,1.341E3,6.24E2,9.02E2,1.796E3,5.5E1,5.6E1,1.206E3,1.75E2,1.437E3,1.72E2,4.869E3,8.538E3,1.162E3,1.1E1,4.766E3,6.1E2,9.153E3,7.44E2,8.48E2,5.94E2,4.69E2,6.54E2,1.365E3,6.4E2,1.814E3,3.804E3,2.5E1,4.5E1,2.29E2,1.94E2,3.51E2,9.9E2,1.2E2,5.04E2,3.91E2,5.11E2,5.06E2,1.29E3,5.5E1,1E0,7.83E2,4.23E2,9.6E1,7.9E1,7.59E2,6.78E2,8.4E1,8.8E1,1.642E3,3.227E3,5.243E3,3.295E3,5.37E2,6.25E2,3E0,8E0,1.341E3,3.425E3,5.43E2,6.7E1,5.101E3,4.052E3,5.5E1,6.89E2,2.33E2,6.15E2,5.73E2,2.1E1,4.36E2,3.3E1,3.3E1,6.21E2,8.85E2,4.8E2,5.04E2,1.36E2,1.233E3,5.81E2,2.242E3,1.562E3,2.4E1,1E0,2.9E1,1.6E1,1.32E2,9.7E1,1.78E2,1.6E1,2.53E2,9.8E1,3.95E2,5.95E2,3E1,9E1,1.36E2,3.68E2],"tree_param":{"num_deleted":"0","num_feature":"319","num_nodes":"125","size_leaf_vector":"1"}},{"base_weights":[1.9228287E1,-6.806802E4,1.6730373E5,6.701193E4,-9.431749E4,1.1522544E5,3.1725897E5,1.41892705E4,1.4136736E5,-1.4799369E5,-4.8697543E4,2.5032706E5,6.814529E4,4.7853934E5,2.745207E5,-5.367738E4,4.316717E4,9.2676375E4,1.7690803E5,-1.384843E5,-2.5118234E5,-4.3717437E3,-7.289968E4,2.9495534E5,1.9051392E5,1.3644361E5,4.36057E4,4.103803E5,5.4614925E5,1.9692278E5,3.5850253E5,-3.9064426E4,-2.2659602E5,-1.8012625E4,6.869514E4,1.0777578E5,2.7033179E3,1.6168667E5,3.1382897E5,-1.0289879E5,-1.587514E5,-2.5348092E5,2.137318E3,6.489135E4,-2.5108652E4,-6.475329E4,-1.7059364E5,2.568973E5,3.6567272E5,1.763308E5,5.423737E5,1.9167898E5,1.6195047E4,-1.2063972E4,7.582171E4,1.7524819E5,4.3229972E5,4.5921962E5,6.122644E5,2.9733306E5,1.643511E5,2.7265747E5,4.0465022E5,-4.531319E3,8.108553E3,-2.4086375E4,-1.8062686E4,-1.2132191E3,-1.7041863E4,6.269225E3,2.6348344E4,1.3396663E4,5.630249E3,5.4754136E3,-1.6841731E3,2.0621168E4,1.1115461E4,4.2265113E4,1.8239312E4,-6.190858E3,-1.2451335E4,-1.9411824E4,-1.4374409E4,-2.7582896E4,-2.317906E4,3.9598E4,-1.2938105E4,1.1775424E3,9.430598E3,-4.633679E3,1.0005019E4,-8.63546E3,-3.9481082E3,-1.8665232E4,-1.2989553E4,2.3490904E4,4.3088523E4,3.1586021E4,4.479407E4,1.2897999E4,2.4951963E4,3.324809E4,6.196681E4,1.4269338E4,2.4224639E4,-6.43966E3,4.3136963E3,1.3975717E3,-6.733612E3,2.6137832E4,6.57089E3,1.4263752E4,2.3046713E4,4.8921395E4,3.6228605E4,4.207596E4,6.1313387E4,6.1826383E4,-7.7840314E2,3.5947465E4,1.7516234E4,7.593789E3,2.0253262E4,1.4652351E4,2.989767E4,2.9656525E4,4.3878965E4],"categories":[],"categories_nodes":[],"categories_segments":[],"categories_sizes":[],"default_left":[0,0,0,0,0,0,0,0,0,0,0,0,0,0,0,0,0,0,0,0,0,0,0,0,0,0,0,0,0,0,0,0,0,0,0,0,0,0,0,0,0,0,0,0,0,0,0,0,0,0,0,0,0,0,0,0,0,0,0,0,0,0,0,0,0,0,0,0,0,0,0,0,0,0,0,0,0,0,0,0,0,0,0,0,0,0,0,0,0,0,0,0,0,0,0,0,0,0,0,0,0,0,0,0,0,0,0,0,0,0,0,0,0,0,0,0,0,0,0,0,0,0,0,0,0,0,0],"id":1,"left_children":[1,3,5,7,9,11,13,15,17,19,21,23,25,27,29,31,33,35,37,39,41,43,45,47,49,51,53,55,57,59,61,63,65,67,69,71,73,75,77,79,81,83,85,87,89,91,93,95,97,99,101,103,105,107,109,111,113,115,117,119,121,123,125,-1,-1,-1,-1,-1,-1,-1,-1,-1,-1,-1,-1,-1,-1,-1,-1,-1,-1,-1,-1,-1,-1,-1,-1,-1,-1,-1,-1,-1,-1,-1,-1,-1,-1,-1,-1,-1,-1,-1,-1,-1,-1,-1,-1,-1,-1,-1,-1,-1,-1,-1,-1,-1,-1,-1,-1,-1,-1,-1,-1,-1,-1,-1,-1],"loss_changes":[5.501342E14,1.2172575E14,1.090766E14,2.1937856E13,7.037594E13,6.595512E13,2.4689787E13,6.427307E12,3.9983923E12,1.2922751E13,1.666959E13,7.097685E12,1.2887616E13,3.2458544E12,1.8495824E13,2.4624085E12,3.5777507E12,1.3324355E12,2.74198E12,8.7053115E12,6.4862395E11,7.885494E12,7.9880813E12,4.0319173E12,5.63342E12,1.350003E13,1.0153662E13,1.8775886E12,1.8740905E12,4.801329E12,5.30509E12,6.8163574E11,6.340215E9,6.0287654E11,1.8730587E12,1.1248861E12,1.4538382E11,2.695008E12,1.8252269E12,3.8826504E12,4.0605393E12,4.7071835E11,6.210054E11,1.975307E12,1.1229993E13,5.062114E12,4.8095245E11,3.7244748E12,2.0468371E12,3.797248E12,5.0780753E11,3.4159964E12,1.3945769E12,2.9888642E12,6.711952E12,2.8351398E10,1.201492E12,7.246646E11,7.860042E11,2.6852962E12,3.7722123E12,1.5529872E12,3.142859E12,0E0,0E0,0E0,0E0,0E0,0E0,0E0,0E0,0E0,0E0,0E0,0E0,0E0,0E0,0E0,0E0,0E0,0E0,0E0,0E0,0E0,0E0,0E0,0E0,0E0,0E0,0E0,0E0,0E0,0E0,0E0,0E0,0E0,0E0,0E0,0E0,0E0,0E0,0E0,0E0,0E0,0E0,0E0,0E0,0E0,0E0,0E0,0E0,0E0,0E0,0E0,0E0,0E0,0E0,0E0,0E0,0E0,0E0,0E0,0E0,0E0,0E0,0E0,0E0],"parents":[2147483647,0,0,1,1,2,2,3,3,4,4,5,5,6,6,7,7,8,8,9,9,10,10,11,11,12,12,13,13,14,14,15,15,16,16,17,17,18,18,19,19,20,20,21,21,22,22,23,23,24,24,25,25,26,26,27,27,28,28,29,29,30,30,31,31,32,32,33,33,34,34,35,35,36,36,37,37,38,38,39,39,40,40,41,41,42,42,43,43,44,44,45,45,46,46,47,47,48,48,49,49,50,50,51,51,52,52,53,53,54,54,55,55,56,56,57,57,58,58,59,59,60,60,61,61,62,62],"right_children":[2,4,6,8,10,12,14,16,18,20,22,24,26,28,30,32,34,36,38,40,42,44,46,48,50,52,54,56,58,60,62,64,66,68,70,72,74,76,78,80,82,84,86,88,90,92,94,96,98,100,102,104,106,108,110,112,114,116,118,120,122,124,126,-1,-1,-1,-1,-1,-1,-1,-1,-1,-1,-1,-1,-1,-1,-1,-1,-1,-1,-1,-1,-1,-1,-1,-1,-1,-1,-1,-1,-1,-1,-1,-1,-1,-1,-1,-1,-1,-1,-1,-1,-1,-1,-1,-1,-1,-1,-1,-1,-1,-1,-1,-1,-1,-1,-1,-1,-1,-1,-1,-1,-1,-1,-1,-1],"split_conditions":[3.6884606E-1,-1.1387751E0,1.5330954E0,-3.2328004E-1,-5.272244E-1,-7.6001376E-1,-7.6001376E-1,-9.848948E-1,-3.273737E-1,5.4341245E0,-7.317805E-3,-1.1387751E0,-8.8806313E-1,2.0822997E0,2.172228E0,5.4341245E0,-4.6910703E-1,9.2329E0,1.6789135E0,2.0273414E-2,7.2768364E0,-9.838198E-1,5.0191607E0,-1.884984E-1,1.6304594E1,1.6353084E-1,-4.931788E-2,-1.8378508E0,-2.0543652E-2,-8.8806313E-1,-5.7437196E-2,9.241251E0,2.0131838E-1,5.4341245E0,1.7175598E0,-1.4122533E0,2.096476E0,1.4967097E0,-1.3130349E0,-9.745195E-1,-1.0716113E0,-1.2418326E0,-4.982014E-1,-2.5743973E-1,4.772882E0,-8.240089E-2,6.2126603E-2,1.6341823E0,1.456664E0,8.6826885E-1,1.6789135E0,8.104578E-1,8.116028E-1,7.957766E-1,-1.6873173E0,3.793705E-1,-1.1387751E0,1.3505294E0,6.4055333E0,1.4097214E-1,-8.359635E-2,8.116028E-1,8.116028E-1,-4.531319E3,8.108553E3,-2.4086375E4,-1.8062686E4,-1.2132191E3,-1.7041863E4,6.269225E3,2.6348344E4,1.3396663E4,5.630249E3,5.4754136E3,-1.6841731E3,2.0621168E4,1.1115461E4,4.2265113E4,1.8239312E4,-6.190858E3,-1.2451335E4,-1.9411824E4,-1.4374409E4,-2.7582896E4,-2.317906E4,3.9598E4,-1.2938105E4,1.1775424E3,9.430598E3,-4.633679E3,1.0005019E4,-8.63546E3,-3.9481082E3,-1.8665232E4,-1.2989553E4,2.3490904E4,4.3088523E4,3.1586021E4,4.479407E4,1.2897999E4,2.4951963E4,3.324809E4,6.196681E4,1.4269338E4,2.4224639E4,-6.43966E3,4.3136963E3,1.3975717E3,-6.733612E3,2.6137832E4,6.57089E3,1.4263752E4,2.3046713E4,4.8921395E4,3.6228605E4,4.207596E4,6.1313387E4,6.1826383E4,-7.7840314E2,3.5947465E4,1.7516234E4,7.593789E3,2.0253262E4,1.4652351E4,2.989767E4,2.9656525E4,4.3878965E4],"split_indices":[5,1,5,5,5,1,1,5,6,14,1,1,2,5,5,14,6,120,2,1,6,2,291,0,128,1,2,1,6,2,6,277,7,14,2,1,11,2,1,2,5,5,7,5,299,5,5,2,4,5,2,5,45,1,0,6,1,7,4,1,2,45,45,0,0,0,0,0,0,0,0,0,0,0,0,0,0,0,0,0,0,0,0,0,0,0,0,0,0,0,0,0,0,0,0,0,0,0,0,0,0,0,0,0,0,0,0,0,0,0,0,0,0,0,0,0,0,0,0,0,0,0,0,0,0,0,0],"split_type":[0,0,0,0,0,0,0,0,0,0,0,0,0,0,0,0,0,0,0,0,0,0,0,0,0,0,0,0,0,0,0,0,0,0,0,0,0,0,0,0,0,0,0,0,0,0,0,0,0,0,0,0,0,0,0,0,0,0,0,0,0,0,0,0,0,0,0,0,0,0,0,0,0,0,0,0,0,0,0,0,0,0,0,0,0,0,0,0,0,0,0,0,0,0,0,0,0,0,0,0,0,0,0,0,0,0,0,0,0,0,0,0,0,0,0,0,0,0,0,0,0,0,0,0,0,0,0],"sum_hessian":[4.8298E4,3.4327E4,1.3971E4,5.585E3,2.8742E4,1.0371E4,3.6E3,3.266E3,2.319E3,1.3204E4,1.5538E4,2.679E3,7.692E3,7.52E2,2.848E3,9.77E2,2.289E3,9.8E2,1.339E3,1.2092E4,1.112E3,5.488E3,1.005E4,1.532E3,1.147E3,2.032E3,5.66E3,3.78E2,3.74E2,1.482E3,1.366E3,9.02E2,7.5E1,6.74E2,1.615E3,8.39E2,1.41E2,1.207E3,1.32E2,4.39E3,7.702E3,1.102E3,1E1,1.264E3,4.224E3,9.278E3,7.72E2,9.99E2,5.33E2,1.104E3,4.3E1,1.392E3,6.4E2,2.075E3,3.585E3,3.3E1,3.45E2,1.65E2,2.09E2,3.61E2,1.121E3,4.8E2,8.86E2,8.58E2,4.4E1,5.4E1,2.1E1,6.5E2,2.4E1,1.568E3,4.7E1,5.55E2,2.84E2,3.8E1,1.03E2,6.4E2,5.67E2,7.1E1,6.1E1,1.517E3,2.873E3,2.291E3,5.411E3,5.37E2,5.65E2,2E0,8E0,4.51E2,8.13E2,3.612E3,6.12E2,5.001E3,4.277E3,5.51E2,2.21E2,8.89E2,1.1E2,3.35E2,1.98E2,6.72E2,4.32E2,1.3E1,3E1,7.09E2,6.83E2,1.6E2,4.8E2,1.411E3,6.64E2,1.84E2,3.401E3,2.3E1,1E1,1.87E2,1.58E2,1.35E2,3E1,2.07E2,2E0,2.38E2,1.23E2,3.39E2,7.82E2,8.4E1,3.96E2,2.15E2,6.71E2],"tree_param":{"num_deleted":"0","num_feature":"319","num_nodes":"127","size_leaf_vector":"1"}},{"base_weights":[3.4121407E1,-5.343468E4,1.7428272E5,6.0741277E4,-7.909667E4,1.3736267E5,3.3869647E5,4.4088813E3,1.2617377E5,-1.2391486E5,-2.684975E4,2.656074E5,9.459465E4,4.7757766E5,2.9960128E5,1.2689548E4,-2.015232E5,9.803584E4,1.7284397E5,-1.1577724E5,-2.2564711E5,-3.216339E4,1.5681044E5,2.1872362E5,3.2362594E5,5.5950566E4,1.4055289E5,3.9267778E5,5.386196E5,2.4814277E5,3.828309E5,-2.6851672E4,4.3676492E4,-2.2952103E5,-1.680914E5,1.1091732E5,4.368543E3,1.5715197E5,2.732514E5,-1.0015278E5,-1.5447023E5,-2.2793236E5,-2.9611967E4,-3.8325324E4,9.152776E4,1.1924363E5,3.5483953E5,2.6524544E5,1.6179845E5,1.291481E5,3.3569797E5,6.4062395E4,-1.0275459E5,2.0225234E5,1.14528695E5,3.589237E5,5.3085075E5,5.430572E5,-2.5508875E4,3.8890003E5,2.214896E5,2.5582681E5,4.113024E5,-3.9640657E3,2.798765E3,-1.5837227E3,5.9610747E3,-2.3983209E4,-1.6819996E4,-1.7088467E4,9.5279065E2,1.0179728E4,2.611038E4,-3.3989548E2,8.920422E3,1.3085636E4,2.2181982E4,2.3133121E4,3.835231E4,-1.3978992E4,-8.404144E3,-1.8338771E4,-9.977524E3,-2.4674453E4,-2.1059156E4,2.4159988E4,-1.1754825E4,-5.441835E3,1.4113928E2,8.814898E3,6.0924977E4,4.9055215E4,1.0252174E4,4.417832E4,2.1746436E4,2.0650857E4,3.2769383E4,1.520633E4,4.018056E4,1.0018865E4,2.5430658E4,2.922706E4,3.9975555E4,1.3167322E4,4.6598887E3,-7.0511377E3,-2.7987709E4,2.6282756E4,9.155948E3,4.8126147E3,1.4300471E4,1.3177151E4,3.7167434E4,5.7732918E4,1.4690829E3,5.4735145E4,-7.265094E2,-8.338166E3,4.5118345E3,4.6960535E4,2.0357033E4,1.7160633E4,2.6115896E4,1.9802084E4,3.4591793E4,2.99751E4,4.517134E4],"categories":[],"categories_nodes":[],"categories_segments":[],"categories_sizes":[],"default_left":[0,0,0,0,0,0,0,0,0,0,0,0,0,0,0,0,0,0,0,0,0,0,0,0,0,0,0,0,0,0,0,0,0,0,0,0,0,0,0,0,0,0,0,0,0,0,0,0,0,0,0,0,0,0,0,0,0,0,0,0,0,0,0,0,0,0,0,0,0,0,0,0,0,0,0,0,0,0,0,0,0,0,0,0,0,0,0,0,0,0,0,0,0,0,0,0,0,0,0,0,0,0,0,0,0,0,0,0,0,0,0,0,0,0,0,0,0,0,0,0,0,0,0,0,0,0,0],"id":2,"left_children":[1,3,5,7,9,11,13,15,17,19,21,23,25,27,29,31,33,35,37,39,41,43,45,47,49,51,53,55,57,59,61,63,65,67,69,71,73,75,77,79,81,83,85,87,89,91,93,95,97,99,101,103,105,107,109,111,113,115,117,119,121,123,125,-1,-1,-1,-1,-1,-1,-1,-1,-1,-1,-1,-1,-1,-1,-1,-1,-1,-1,-1,-1,-1,-1,-1,-1,-1,-1,-1,-1,-1,-1,-1,-1,-1,-1,-1,-1,-1,-1,-1,-1,-1,-1,-1,-1,-1,-1,-1,-1,-1,-1,-1,-1,-1,-1,-1,-1,-1,-1,-1,-1,-1,-1,-1,-1],"loss_changes":[4.5000446E14,1.0829404E14,6.879521E13,2.5001376E13,7.065951E13,5.0780338E13,1.1145021E13,6.2199164E12,4.103879E12,1.3420766E13,1.3604269E13,6.229011E12,1.2331883E13,2.1465106E12,6.8646664E12,4.2969397E12,9.339824E10,2.3643984E12,1.8146824E12,9.078286E12,5.317371E11,1.0326425E13,2.8739014E12,3.3574523E12,2.3818697E12,4.8677635E12,5.0716517E12,7.142627E11,6.697297E11,3.691751E12,2.1330804E12,1.08187314E12,1.865315E12,6.4492667E9,3.536519E10,2.3334276E12,1.571359E11,1.7088622E12,6.416509E11,6.832857E12,6.822304E12,3.3558626E11,3.8614E11,8.2506993E12,1.0710737E12,2.004881E12,6.4444957E11,2.5182853E12,1.2940739E12,1.9924163E11,2.5871222E12,4.2361978E12,1.0310894E12,6.278869E12,4.2173412E12,4.11543E11,8.551693E11,6.184166E11,1.6024224E10,2.2825822E12,1.6352165E12,5.356058E11,2.1365868E12,0E0,0E0,0E0,0E0,0E0,0E0,0E0,0E0,0E0,0E0,0E0,0E0,0E0,0E0,0E0,0E0,0E0,0E0,0E0,0E0,0E0,0E0,0E0,0E0,0E0,0E0,0E0,0E0,0E0,0E0,0E0,0E0,0E0,0E0,0E0,0E0,0E0,0E0,0E0,0E0,0E0,0E0,0E0,0E0,0E0,0E0,0E0,0E0,0E0,0E0,0E0,0E0,0E0,0E0,0E0,0E0,0E0,0E0,0E0,0E0,0E0,0E0,0E0,0E0],"parents":[2147483647,0,0,1,1,2,2,3,3,4,4,5,5,6,6,7,7,8,8,9,9,10,10,11,11,12,12,13,13,14,14,15,15,16,16,17,17,18,18,19,19,20,20,21,21,22,22,23,23,24,24,25,25,26,26,27,27,28,28,29,29,30,30,31,31,32,32,33,33,34,34,35,35,36,36,37,37,38,38,39,39,40,40,41,41,42,42,43,43,44,44,45,45,46,46,47,47,48,48,49,49,50,50,51,51,52,52,53,53,54,54,55,55,56,56,57,57,58,58,59,59,60,60,61,61,62,62],"right_children":[2,4,6,8,10,12,14,16,18,20,22,24,26,28,30,32,34,36,38,40,42,44,46,48,50,52,54,56,58,60,62,64,66,68,70,72,74,76,78,80,82,84,86,88,90,92,94,96,98,100,102,104,106,108,110,112,114,116,118,120,122,124,126,-1,-1,-1,-1,-1,-1,-1,-1,-1,-1,-1,-1,-1,-1,-1,-1,-1,-1,-1,-1,-1,-1,-1,-1,-1,-1,-1,-1,-1,-1,-1,-1,-1,-1,-1,-1,-1,-1,-1,-1,-1,-1,-1,-1,-1,-1,-1,-1,-1,-1,-1,-1,-1,-1,-1,-1,-1,-1,-1,-1,-1,-1,-1,-1],"split_conditions":[5.5030835E-1,-1.0724322E0,2.0020068E0,-3.2328004E-1,-3.4736797E-1,-7.6001376E-1,-5.676544E-1,5.4341245E0,1.4723724E-1,5.4341245E0,4.772882E0,1.456664E0,1.456664E0,-2.0543652E-2,2.8129666E0,-8.114618E-1,-1.2418326E0,-1.1387751E0,6.008634E-1,6.594349E-1,7.2768364E0,4.523912E0,1.6304594E1,-1.1539296E0,-1.8660724E0,5.0191607E0,-8.8806313E-1,1.3505294E0,9.991541E0,-1.036914E0,8.116028E-1,5.547522E0,-5.380883E-1,3.5121548E-1,1.7092731E0,1.691759E0,1.2398279E0,-1.2072552E-1,2.8030596E0,-1.005771E0,3.837534E-2,-3.483043E-1,-4.982014E-1,2.2271271E-1,-1.1761025E0,-1.6973782E0,-1.4844151E-1,-1.7447624E-1,1.6304594E1,2.1383016E-1,1.3066689E0,-9.290085E-1,2.9927075E0,1.4097214E-1,-8.359635E-2,-1.8660724E0,6.1860056E0,6.4055333E0,9.785948E-1,1.9159812E-1,1.0534799E0,2.4733176E0,-6.616152E-2,-3.9640657E3,2.798765E3,-1.5837227E3,5.9610747E3,-2.3983209E4,-1.6819996E4,-1.7088467E4,9.5279065E2,1.0179728E4,2.611038E4,-3.3989548E2,8.920422E3,1.3085636E4,2.2181982E4,2.3133121E4,3.835231E4,-1.3978992E4,-8.404144E3,-1.8338771E4,-9.977524E3,-2.4674453E4,-2.1059156E4,2.4159988E4,-1.1754825E4,-5.441835E3,1.4113928E2,8.814898E3,6.0924977E4,4.9055215E4,1.0252174E4,4.417832E4,2.1746436E4,2.0650857E4,3.2769383E4,1.520633E4,4.018056E4,1.0018865E4,2.5430658E4,2.922706E4,3.9975555E4,1.3167322E4,4.6598887E3,-7.0511377E3,-2.7987709E4,2.6282756E4,9.155948E3,4.8126147E3,1.4300471E4,1.3177151E4,3.7167434E4,5.7732918E4,1.4690829E3,5.4735145E4,-7.265094E2,-8.338166E3,4.5118345E3,4.6960535E4,2.0357033E4,1.7160633E4,2.6115896E4,1.9802084E4,3.4591793E4,2.99751E4,4.517134E4],"split_indices":[5,1,5,5,5,1,1,14,5,14,299,4,4,6,5,5,5,1,0,1,6,301,128,1,1,291,2,7,179,2,45,158,6,7,2,2,3,6,318,5,2,7,7,5,2,7,7,6,128,6,5,2,313,1,2,1,274,4,0,1,21,10,6,0,0,0,0,0,0,0,0,0,0,0,0,0,0,0,0,0,0,0,0,0,0,0,0,0,0,0,0,0,0,0,0,0,0,0,0,0,0,0,0,0,0,0,0,0,0,0,0,0,0,0,0,0,0,0,0,0,0,0,0,0,0,0,0],"split_type":[0,0,0,0,0,0,0,0,0,0,0,0,0,0,0,0,0,0,0,0,0,0,0,0,0,0,0,0,0,0,0,0,0,0,0,0,0,0,0,0,0,0,0,0,0,0,0,0,0,0,0,0,0,0,0,0,0,0,0,0,0,0,0,0,0,0,0,0,0,0,0,0,0,0,0,0,0,0,0,0,0,0,0,0,0,0,0,0,0,0,0,0,0,0,0,0,0,0,0,0,0,0,0,0,0,0,0,0,0,0,0,0,0,0,0,0,0,0,0,0,0,0,0,0,0,0,0],"sum_hessian":[4.8298E4,3.6958E4,1.134E4,6.782E3,3.0176E4,9.262E3,2.078E3,3.645E3,3.137E3,1.6242E4,1.3934E4,2.315E3,6.947E3,4.54E2,1.624E3,3.505E3,1.4E2,1.959E3,1.178E3,1.5041E4,1.201E3,1.3543E4,3.91E2,1.283E3,1.032E3,3.775E3,3.172E3,1.93E2,2.61E2,1.006E3,6.18E2,1.54E3,1.965E3,7.3E1,6.7E1,1.722E3,2.37E2,1.021E3,1.57E2,1.0717E4,4.324E3,1.187E3,1.4E1,1.2901E4,6.42E2,3.3E2,6.1E1,7.04E2,5.79E2,6.1E1,9.71E2,3.592E3,1.83E2,9.39E2,2.233E3,1.58E2,3.5E1,2.59E2,2E0,1.58E2,8.48E2,1.15E2,5.03E2,1.249E3,2.91E2,4.15E2,1.55E3,6E1,1.3E1,6.6E1,1E0,1.625E3,9.7E1,2.18E2,1.9E1,7.28E2,2.93E2,1.16E2,4.1E1,3.095E3,7.622E3,2.827E3,1.497E3,5.63E2,6.24E2,3E0,1.1E1,9.182E3,3.719E3,6.39E2,3E0,1.3E1,3.17E2,3.6E1,2.5E1,3.65E2,3.39E2,5.58E2,2.1E1,5.1E1,1E1,5.82E2,3.89E2,7.36E2,2.856E3,1.56E2,2.7E1,6.06E2,3.33E2,6.71E2,1.562E3,9E0,1.49E2,3.2E1,3E0,2.57E2,2E0,1E0,1E0,1.09E2,4.9E1,3.78E2,4.7E2,7.2E1,4.3E1,1.36E2,3.67E2],"tree_param":{"num_deleted":"0","num_feature":"319","num_nodes":"127","size_leaf_vector":"1"}},{"base_weights":[4.819559E1,-6.125422E4,1.2324893E5,4.832992E4,-8.267405E4,7.564731E4,2.3740825E5,-1.949808E4,8.268541E4,-1.2114245E5,-4.6758027E4,1.8242523E5,3.821256E4,3.445854E5,1.9327523E5,-1.0675689E4,-1.8067834E5,4.543534E4,1.16094984E5,-1.13447695E5,-2.0348223E5,-9.029728E3,-6.4550887E4,2.1986917E5,1.3267148E5,9.6696516E4,2.0006908E4,3.126551E5,4.5383138E5,1.3589022E5,2.8607156E5,-4.3541836E4,1.1051129E4,-1.9354753E5,-1.460471E5,3.1227803E4,9.65352E4,1.0312779E5,2.2283303E5,-1.01426766E5,-1.5806625E5,-2.0541361E5,8.503432E3,3.964622E4,-2.9180316E4,-5.7680867E4,-1.5132672E5,1.9785955E5,3.154566E5,1.1860261E5,4.6524044E5,1.487549E5,-1.5480882E4,-1.3934058E4,4.93434E4,3.2304547E5,9.4645836E4,3.686406E5,5.0243084E5,4.614267E4,1.6761506E5,2.5343738E5,3.944341E5,-5.020871E3,3.8360215E3,-4.170822E3,3.7375513E3,-1.4082828E4,-2.0549236E4,-5.812892E3,-1.5040663E4,5.111018E3,-4.7395782E2,1.1527274E4,-1.1778864E3,1.449721E4,6.558987E3,3.4669035E4,1.4673599E4,-1.2688949E4,-8.706325E3,-1.8038451E4,-9.766724E3,-2.2488129E4,-1.8651268E4,3.5347465E4,-1.0743181E4,3.0873376E3,1.7595627E4,-4.7062207E3,5.9778105E3,-5.4467417E3,-1.9610236E4,-1.4600088E4,-2.6451635E4,1.6351328E4,2.4679162E4,2.702474E4,4.5228715E4,1.0995591E4,3.835293E4,5.6609926E4,3.281868E4,1.5509555E4,-8.874803E3,-7.7328735E3,1.0881111E3,8.824054E2,-5.8708086E3,2.3093377E4,4.0101482E3,1.5272893E4,3.3373086E4,-1.3360989E4,1.288082E4,3.7664004E4,-2.756478E4,5.5592215E4,4.192567E4,1.301735E3,1.8068938E4,2.55136E4,1.4864304E4,2.1727457E4,3.2654342E4,2.2217629E4,4.3403184E4],"categories":[],"categories_nodes":[],"categories_segments":[],"categories_sizes":[],"default_left":[0,0,0,0,0,0,0,0,0,0,0,0,0,0,0,0,0,0,0,0,0,0,0,0,0,0,0,0,0,0,0,0,0,0,0,0,0,0,0,0,0,0,0,0,0,0,0,0,0,0,0,0,0,0,0,0,0,0,0,0,0,0,0,0,0,0,0,0,0,0,0,0,0,0,0,0,0,0,0,0,0,0,0,0,0,0,0,0,0,0,0,0,0,0,0,0,0,0,0,0,0,0,0,0,0,0,0,0,0,0,0,0,0,0,0,0,0,0,0,0,0,0,0,0,0,0,0],"id":3,"left_children":[1,3,5,7,9,11,13,15,17,19,21,23,25,27,29,31,33,35,37,39,41,43,45,47,49,51,53,55,57,59,61,63,65,67,69,71,73,75,77,79,81,83,85,87,89,91,93,95,97,99,101,103,105,107,109,111,113,115,117,119,121,123,125,-1,-1,-1,-1,-1,-1,-1,-1,-1,-1,-1,-1,-1,-1,-1,-1,-1,-1,-1,-1,-1,-1,-1,-1,-1,-1,-1,-1,-1,-1,-1,-1,-1,-1,-1,-1,-1,-1,-1,-1,-1,-1,-1,-1,-1,-1,-1,-1,-1,-1,-1,-1,-1,-1,-1,-1,-1,-1,-1,-1,-1,-1,-1,-1],"loss_changes":[3.6478587E14,7.570827E13,8.718955E13,1.2291424E13,3.7269377E13,4.526937E13,2.2268718E13,2.5206905E12,4.351752E12,8.2299794E12,9.366661E12,5.44799E12,8.929092E12,4.6579424E12,1.7784285E13,1.2022725E12,1.2735218E10,1.1999728E12,2.530671E12,6.374654E12,4.5702395E11,4.388494E12,5.6439855E12,3.4636227E12,5.863595E12,1.1629297E13,6.3712317E12,2.3886645E12,1.09411775E12,5.886026E12,4.4194626E12,3.6776667E11,1.40986E12,1.1363156E10,2.3722066E9,9.284644E11,7.31992E11,2.577513E12,1.8247372E12,3.422829E12,3.3887753E12,3.635455E11,4.7791197E11,1.5611003E12,5.03593E12,3.8983183E12,3.8034578E11,2.2537086E12,1.8078037E12,2.7410815E12,5.1919087E11,2.0618171E12,1.03127476E12,3.0238093E12,5.75047E12,1.8035004E12,4.0709784E11,7.016798E11,6.300432E11,2.4132893E12,2.5009E12,2.533108E12,1.9089452E12,0E0,0E0,0E0,0E0,0E0,0E0,0E0,0E0,0E0,0E0,0E0,0E0,0E0,0E0,0E0,0E0,0E0,0E0,0E0,0E0,0E0,0E0,0E0,0E0,0E0,0E0,0E0,0E0,0E0,0E0,0E0,0E0,0E0,0E0,0E0,0E0,0E0,0E0,0E0,0E0,0E0,0E0,0E0,0E0,0E0,0E0,0E0,0E0,0E0,0E0,0E0,0E0,0E0,0E0,0E0,0E0,0E0,0E0,0E0,0E0,0E0,0E0,0E0,0E0],"parents":[2147483647,0,0,1,1,2,2,3,3,4,4,5,5,6,6,7,7,8,8,9,9,10,10,11,11,12,12,13,13,14,14,15,15,16,16,17,17,18,18,19,19,20,20,21,21,22,22,23,23,24,24,25,25,26,26,27,27,28,28,29,29,30,30,31,31,32,32,33,33,34,34,35,35,36,36,37,37,38,38,39,39,40,40,41,41,42,42,43,43,44,44,45,45,46,46,47,47,48,48,49,49,50,50,51,51,52,52,53,53,54,54,55,55,56,56,57,57,58,58,59,59,60,60,61,61,62,62],"right_children":[2,4,6,8,10,12,14,16,18,20,22,24,26,28,30,32,34,36,38,40,42,44,46,48,50,52,54,56,58,60,62,64,66,68,70,72,74,76,78,80,82,84,86,88,90,92,94,96,98,100,102,104,106,108,110,112,114,116,118,120,122,124,126,-1,-1,-1,-1,-1,-1,-1,-1,-1,-1,-1,-1,-1,-1,-1,-1,-1,-1,-1,-1,-1,-1,-1,-1,-1,-1,-1,-1,-1,-1,-1,-1,-1,-1,-1,-1,-1,-1,-1,-1,-1,-1,-1,-1,-1,-1,-1,-1,-1,-1,-1,-1,-1,-1,-1,-1,-1,-1,-1,-1,-1,-1,-1,-1],"split_conditions":[2.3395373E-1,-1.1387751E0,1.3066689E0,-7.1189845E-1,-5.352537E-1,-7.6001376E-1,-3.3198914E-1,5.4341245E0,-3.273737E-1,5.4341245E0,-5.8204796E-2,-1.1387751E0,-9.290085E-1,2.3906252E0,2.172228E0,-1.0876698E0,2.0131838E-1,-5.6707114E-2,1.6847669E0,8.5364324E-1,7.2768364E0,-8.962666E-1,5.0191607E0,2.8030596E0,1.6304594E1,1.7778303E-1,1.6008599E-2,7.212244E0,-2.9415846E-2,8.116028E-1,3.3252363E0,5.9481E-1,-4.16835E-1,-1.4581093E0,-2.0060517E-1,-1.4202052E0,9.2329E0,1.4967097E0,-1.3389089E0,-1.0202237E0,6.062175E-2,-1.2418326E0,-4.982014E-1,1.456664E0,4.772882E0,5.4341245E0,5.4341245E0,-1.911116E-1,7.606728E-1,1.7856491E1,-1.4844151E-1,1.8480774E1,8.116028E-1,7.957766E-1,-1.6873173E0,-1.8378508E0,4.0118116E-1,1.7175598E0,-1.0079241E0,4.5233765E-1,-1.0199275E0,2.4733176E0,8.116028E-1,-5.020871E3,3.8360215E3,-4.170822E3,3.7375513E3,-1.4082828E4,-2.0549236E4,-5.812892E3,-1.5040663E4,5.111018E3,-4.7395782E2,1.1527274E4,-1.1778864E3,1.449721E4,6.558987E3,3.4669035E4,1.4673599E4,-1.2688949E4,-8.706325E3,-1.8038451E4,-9.766724E3,-2.2488129E4,-1.8651268E4,3.5347465E4,-1.0743181E4,3.0873376E3,1.7595627E4,-4.7062207E3,5.9778105E3,-5.4467417E3,-1.9610236E4,-1.4600088E4,-2.6451635E4,1.6351328E4,2.4679162E4,2.702474E4,4.5228715E4,1.0995591E4,3.835293E4,5.6609926E4,3.281868E4,1.5509555E4,-8.874803E3,-7.7328735E3,1.0881111E3,8.824054E2,-5.8708086E3,2.3093377E4,4.0101482E3,1.5272893E4,3.3373086E4,-1.3360989E4,1.288082E4,3.7664004E4,-2.756478E4,5.5592215E4,4.192567E4,1.301735E3,1.8068938E4,2.55136E4,1.4864304E4,2.1727457E4,3.2654342E4,2.2217629E4,4.3403184E4],"split_indices":[5,1,5,5,5,1,1,14,6,14,1,1,2,5,5,5,7,5,2,1,6,2,291,318,128,1,2,213,6,45,5,0,6,1,0,1,120,2,1,5,2,5,7,4,299,14,14,6,0,193,7,220,45,1,0,1,7,2,1,2,2,10,45,0,0,0,0,0,0,0,0,0,0,0,0,0,0,0,0,0,0,0,0,0,0,0,0,0,0,0,0,0,0,0,0,0,0,0,0,0,0,0,0,0,0,0,0,0,0,0,0,0,0,0,0,0,0,0,0,0,0,0,0,0,0,0,0],"split_type":[0,0,0,0,0,0,0,0,0,0,0,0,0,0,0,0,0,0,0,0,0,0,0,0,0,0,0,0,0,0,0,0,0,0,0,0,0,0,0,0,0,0,0,0,0,0,0,0,0,0,0,0,0,0,0,0,0,0,0,0,0,0,0,0,0,0,0,0,0,0,0,0,0,0,0,0,0,0,0,0,0,0,0,0,0,0,0,0,0,0,0,0,0,0,0,0,0,0,0,0,0,0,0,0,0,0,0,0,0,0,0,0,0,0,0,0,0,0,0,0,0,0,0,0,0,0,0],"sum_hessian":[4.8298E4,3.2251E4,1.6047E4,5.273E3,2.6978E4,1.1326E4,4.721E3,1.773E3,3.5E3,1.3025E4,1.3953E4,2.939E3,8.387E3,1.375E3,3.346E3,1.682E3,9.1E1,1.656E3,1.844E3,1.1914E4,1.111E3,4.472E3,9.481E3,1.675E3,1.264E3,1.99E3,6.397E3,1.067E3,3.08E2,2.069E3,1.277E3,6.69E2,1.013E3,6.3E1,2.8E1,1.297E3,3.59E2,1.646E3,1.98E2,9.388E3,2.526E3,1.101E3,1E1,1.309E3,3.163E3,8.787E3,6.94E2,1.364E3,3.11E2,1.214E3,5E1,1.359E3,6.31E2,2.966E3,3.431E3,1.018E3,4.9E1,1.15E2,1.93E2,5.41E2,1.528E3,9.84E2,2.93E2,6.19E2,5E1,3.37E2,6.76E2,1.4E1,4.9E1,2E0,2.6E1,8.35E2,4.62E2,3.06E2,5.3E1,7.77E2,8.69E2,7.4E1,1.24E2,3.383E3,6.005E3,1.843E3,6.83E2,5.37E2,5.64E2,2E0,8E0,1.231E3,7.8E1,2.634E3,5.29E2,8.589E3,1.98E2,6.65E2,2.9E1,8.04E2,5.6E2,2.36E2,7.5E1,1.177E3,3.7E1,2.7E1,2.3E1,1.324E3,3.5E1,1.88E2,4.43E2,1.967E3,9.99E2,1.65E2,3.266E3,6.1E1,9.57E2,6E0,4.3E1,1.14E2,1E0,1.14E2,7.9E1,4.35E2,1.06E2,2.7E2,1.258E3,6.61E2,3.23E2,5.6E1,2.37E2],"tree_param":{"num_deleted":"0","num_feature":"319","num_nodes":"127","size_leaf_vector":"1"}},{"base_weights":[5.4307026E1,-4.3689816E4,1.4261131E5,5.6812535E4,-6.3053324E4,1.092851E5,2.6294234E5,1.009875E4,1.13210734E5,-9.664184E4,-1.5417499E4,2.146602E5,7.374183E4,3.6137725E5,2.2759536E5,-5.1644457E4,2.8199904E4,7.040636E4,1.4219012E5,-1.25264375E5,-7.582863E4,2.3582012E4,-3.7322254E4,1.7623119E5,2.647016E5,1.28284164E5,5.4348297E4,3.7538125E5,1.5038219E5,1.8443939E5,3.0464612E5,-3.9189418E4,-1.668282E5,-1.9649092E4,4.8482773E4,8.3328984E4,-1.0228159E4,1.29842445E5,2.5824908E5,-1.1690018E5,-1.9177616E5,-6.158425E4,-1.09601086E5,1.9813324E4,2.9971394E5,-6.3942105E4,-1.3831339E4,2.160997E5,1.2991479E5,2.4278558E5,3.6031444E5,1.7373092E5,2.9995436E4,-2.7536203E2,7.9982375E4,2.3977328E5,3.961052E5,9.114436E4,4.3355074E4,9.236914E4,2.0875762E5,1.6821444E5,3.3433462E5,-5.847551E3,-1.5636709E3,-1.7877947E4,-1.3359382E4,-5.394214E3,2.4339085E2,4.4329097E3,2.9703426E4,1.0555905E4,3.9096887E3,3.3968848E3,-2.7412188E3,1.677338E4,8.268593E3,3.3503688E4,1.5879981E4,-8.669077E3,-1.339678E4,-1.9671371E4,-1.0674557E4,-6.7451343E3,3.6487692E2,-1.3701349E4,-6.0911265E3,8.566796E3,2.4295152E2,4.912984E3,3.359277E4,-2.1142908E3,-9.817959E3,-1.6502728E3,2.7515812E4,2.0729572E4,5.2886324E4,1.8312092E4,9.341996E3,2.2213148E4,3.9400984E4,3.2445639E4,5.7837883E4,6.617061E3,1.9035895E4,-3.946998E3,5.0846206E3,2.4717996E3,-5.093704E3,5.011401E3,1.2031882E4,1.9246682E4,4.1211215E4,4.5045223E4,3.5384344E4,-9.834485E3,1.7845342E4,2.4643416E4,6.4652515E3,2.3888312E4,1.3457588E4,3.121727E4,1.2615929E4,2.929324E4,4.3224684E4],"categories":[],"categories_nodes":[],"categories_segments":[],"categories_sizes":[],"default_left":[0,0,0,0,0,0,0,0,0,0,0,0,0,0,0,0,0,0,0,0,0,0,0,0,0,0,0,0,0,0,0,0,0,0,0,0,0,0,0,0,0,0,0,0,0,0,0,0,0,0,0,0,0,0,0,0,0,0,0,0,0,0,0,0,0,0,0,0,0,0,0,0,0,0,0,0,0,0,0,0,0,0,0,0,0,0,0,0,0,0,0,0,0,0,0,0,0,0,0,0,0,0,0,0,0,0,0,0,0,0,0,0,0,0,0,0,0,0,0,0,0,0,0,0,0],"id":4,"left_children":[1,3,5,7,9,11,13,15,17,19,21,23,25,27,29,31,33,35,37,39,41,43,45,47,49,51,53,55,57,59,61,63,65,67,69,71,73,75,77,79,81,83,85,87,89,91,93,95,97,99,101,103,105,107,109,111,113,115,-1,117,119,121,123,-1,-1,-1,-1,-1,-1,-1,-1,-1,-1,-1,-1,-1,-1,-1,-1,-1,-1,-1,-1,-1,-1,-1,-1,-1,-1,-1,-1,-1,-1,-1,-1,-1,-1,-1,-1,-1,-1,-1,-1,-1,-1,-1,-1,-1,-1,-1,-1,-1,-1,-1,-1,-1,-1,-1,-1,-1,-1,-1,-1,-1,-1],"loss_changes":[3.012003E14,7.192869E13,4.5450686E13,1.5729894E13,4.958143E13,3.3254355E13,8.4735343E12,3.6527315E12,3.3453936E12,1.0817244E13,1.0949266E13,4.26096E12,7.0208413E12,1.8582444E12,5.9690734E12,1.05651385E12,2.453444E12,1.1408114E12,2.2765592E12,4.2334117E12,5.0564935E12,4.7914817E12,5.131154E12,2.3170636E12,1.9472056E12,7.776137E12,6.8653375E12,1.610898E12,6.650045E11,2.5868957E12,2.572505E12,3.034263E11,4.7141356E9,5.703732E11,1.819348E12,9.231076E11,1.1637252E11,2.5931075E12,1.1228162E12,3.4934526E12,3.3712767E11,2.8343492E12,4.157264E12,5.207507E12,5.461204E11,5.6350726E12,3.3712479E12,1.7655461E12,1.1285226E12,2.3893314E12,1.2120092E12,2.1175195E12,8.015278E11,1.985403E12,4.0143306E12,5.973596E11,1.0464369E12,6.131384E11,0E0,1.0302571E12,2.0238314E12,6.750103E11,2.0299928E12,0E0,0E0,0E0,0E0,0E0,0E0,0E0,0E0,0E0,0E0,0E0,0E0,0E0,0E0,0E0,0E0,0E0,0E0,0E0,0E0,0E0,0E0,0E0,0E0,0E0,0E0,0E0,0E0,0E0,0E0,0E0,0E0,0E0,0E0,0E0,0E0,0E0,0E0,0E0,0E0,0E0,0E0,0E0,0E0,0E0,0E0,0E0,0E0,0E0,0E0,0E0,0E0,0E0,0E0,0E0,0E0,0E0,0E0,0E0,0E0,0E0,0E0],"parents":[2147483647,0,0,1,1,2,2,3,3,4,4,5,5,6,6,7,7,8,8,9,9,10,10,11,11,12,12,13,13,14,14,15,15,16,16,17,17,18,18,19,19,20,20,21,21,22,22,23,23,24,24,25,25,26,26,27,27,28,28,29,29,30,30,31,31,32,32,33,33,34,34,35,35,36,36,37,37,38,38,39,39,40,40,41,41,42,42,43,43,44,44,45,45,46,46,47,47,48,48,49,49,50,50,51,51,52,52,53,53,54,54,55,55,56,56,57,57,59,59,60,60,61,61,62,62],"right_children":[2,4,6,8,10,12,14,16,18,20,22,24,26,28,30,32,34,36,38,40,42,44,46,48,50,52,54,56,58,60,62,64,66,68,70,72,74,76,78,80,82,84,86,88,90,92,94,96,98,100,102,104,106,108,110,112,114,116,-1,118,120,122,124,-1,-1,-1,-1,-1,-1,-1,-1,-1,-1,-1,-1,-1,-1,-1,-1,-1,-1,-1,-1,-1,-1,-1,-1,-1,-1,-1,-1,-1,-1,-1,-1,-1,-1,-1,-1,-1,-1,-1,-1,-1,-1,-1,-1,-1,-1,-1,-1,-1,-1,-1,-1,-1,-1,-1,-1,-1,-1,-1,-1,-1,-1],"split_conditions":[5.5030835E-1,-1.1387751E0,1.8542675E0,-3.2328004E-1,-2.6386318E-1,-7.6001376E-1,-3.3198914E-1,-1.0876698E0,-3.2382485E-1,-8.403673E-1,-7.317805E-3,1.456664E0,-8.8806313E-1,9.761734E-1,3.106287E0,5.4341245E0,-4.6910703E-1,9.2329E0,1.6789135E0,5.4341245E0,5.884513E-1,1.6304594E1,-7.567526E-2,-1.1702473E0,1.6199206E0,1.6353084E-1,-9.227415E-2,-2.9417694E-1,1.5301656E0,1.456664E0,8.116028E-1,-3.053411E-1,1.5135267E-1,-9.8269746E-2,1.7309941E0,-1.4122533E0,2.096476E0,1.4967097E0,-1.3130349E0,2.0273414E-2,2.4459264E0,4.523912E0,2.5048552E-2,-9.978315E-1,-4.6910703E-1,2.8039694E-1,2.1322325E1,1.691759E0,5.439622E-1,7.606728E-1,-8.731368E-1,1.2022438E-1,8.116028E-1,7.957766E-1,1.0818484E0,3.5814917E0,-1.1387751E0,6.510097E-1,4.3355074E4,-1.5299292E0,2.5779254E0,7.5094104E-1,3.793705E-1,-5.847551E3,-1.5636709E3,-1.7877947E4,-1.3359382E4,-5.394214E3,2.4339085E2,4.4329097E3,2.9703426E4,1.0555905E4,3.9096887E3,3.3968848E3,-2.7412188E3,1.677338E4,8.268593E3,3.3503688E4,1.5879981E4,-8.669077E3,-1.339678E4,-1.9671371E4,-1.0674557E4,-6.7451343E3,3.6487692E2,-1.3701349E4,-6.0911265E3,8.566796E3,2.4295152E2,4.912984E3,3.359277E4,-2.1142908E3,-9.817959E3,-1.6502728E3,2.7515812E4,2.0729572E4,5.2886324E4,1.8312092E4,9.341996E3,2.2213148E4,3.9400984E4,3.2445639E4,5.7837883E4,6.617061E3,1.9035895E4,-3.946998E3,5.0846206E3,2.4717996E3,-5.093704E3,5.011401E3,1.2031882E4,1.9246682E4,4.1211215E4,4.5045223E4,3.5384344E4,-9.834485E3,1.7845342E4,2.4643416E4,6.4652515E3,2.3888312E4,1.3457588E4,3.121727E4,1.2615929E4,2.929324E4,4.3224684E4],"split_indices":[5,1,5,5,5,1,1,5,6,5,1,4,2,0,4,14,6,120,2,14,1,128,2,1,2,1,2,6,2,4,45,6,7,3,2,1,11,2,1,1,6,301,2,2,6,1,126,2,315,0,1,0,45,1,5,273,1,7,0,0,3,7,6,0,0,0,0,0,0,0,0,0,0,0,0,0,0,0,0,0,0,0,0,0,0,0,0,0,0,0,0,0,0,0,0,0,0,0,0,0,0,0,0,0,0,0,0,0,0,0,0,0,0,0,0,0,0,0,0,0,0,0,0,0,0],"split_type":[0,0,0,0,0,0,0,0,0,0,0,0,0,0,0,0,0,0,0,0,0,0,0,0,0,0,0,0,0,0,0,0,0,0,0,0,0,0,0,0,0,0,0,0,0,0,0,0,0,0,0,0,0,0,0,0,0,0,0,0,0,0,0,0,0,0,0,0,0,0,0,0,0,0,0,0,0,0,0,0,0,0,0,0,0,0,0,0,0,0,0,0,0,0,0,0,0,0,0,0,0,0,0,0,0,0,0,0,0,0,0,0,0,0,0,0,0,0,0,0,0,0,0,0,0],"sum_hessian":[4.8298E4,3.6958E4,1.134E4,5.97E3,3.0988E4,8.882E3,2.458E3,3.266E3,2.704E3,1.8173E4,1.2815E4,2.239E3,6.643E3,6.47E2,1.811E3,7.4E2,2.526E3,1.093E3,1.611E3,7.649E3,1.0524E4,4.609E3,8.206E3,1.269E3,9.7E2,1.741E3,4.902E3,6.06E2,4.1E1,1.163E3,6.48E2,6.69E2,7.1E1,7.52E2,1.774E3,9.42E2,1.51E2,1.458E3,1.53E2,6.797E3,8.52E2,7.404E3,3.12E3,4.548E3,6.1E1,3.846E3,4.36E3,6.8E2,5.89E2,7.92E2,1.78E2,1.19E3,5.51E2,1.566E3,3.336E3,8.2E1,5.24E2,3.5E1,6E0,2.44E2,9.19E2,1.17E2,5.31E2,3.67E2,3.02E2,4.9E1,2.2E1,2.94E2,4.58E2,1.746E3,2.8E1,6.26E2,3.16E2,4.2E1,1.09E2,8.07E2,6.51E2,8.5E1,6.8E1,2.456E3,4.341E3,8.04E2,4.8E1,6.793E3,6.11E2,1.995E3,1.125E3,9.49E2,3.599E3,8E0,5.3E1,1.71E3,2.136E3,4.321E3,3.9E1,6.63E2,1.7E1,2.38E2,3.51E2,6.99E2,9.3E1,1.55E2,2.3E1,1.6E2,1.03E3,1.27E2,4.24E2,1.049E3,5.17E2,1.918E3,1.418E3,6.6E1,1.6E1,2.25E2,2.99E2,1.1E1,2.4E1,3.6E1,2.08E2,6.52E2,2.67E2,2.5E1,9.2E1,3.76E2,1.55E2],"tree_param":{"num_deleted":"0","num_feature":"319","num_nodes":"125","size_leaf_vector":"1"}},{"base_weights":[6.407338E1,-3.76561E4,1.3439833E5,5.320892E4,-5.5205797E4,1.07937836E5,2.5605111E5,1.4843215E4,1.12879125E5,-8.6981984E4,-1.2213713E4,1.8580239E5,6.784808E4,3.5236956E5,2.2555194E5,-1.9982945E4,4.226168E4,9.512487E4,1.7437542E5,-1.2717418E5,-7.445136E4,2.5842182E4,-3.0877225E4,1.4615442E5,2.320966E5,1.0018867E4,8.918021E4,3.1982256E5,4.1409688E5,1.983685E5,3.28531E5,-1.2732911E4,-1.490872E5,-5.3007607E3,5.978817E4,8.211521E4,2.0007506E5,1.5237367E5,2.9042794E5,-1.1763884E5,-1.7882506E5,-4.800506E4,-8.9398914E4,2.2045777E4,2.760133E5,-6.5069918E4,-1.3733032E4,2.0401464E5,1.1096527E5,2.868986E5,1.986451E5,-2.109909E4,1.4072244E5,5.4943008E4,1.27214945E5,1.9054772E5,3.3890475E5,4.2089475E5,-6.6096586E4,1.6704245E5,2.626768E5,1.8186194E5,3.6158288E5,-2.4975078E3,3.3743496E3,-1.0419423E4,-1.562695E4,9.979728E2,-4.365986E3,5.53025E3,2.0232244E4,7.5108413E3,2.1209809E4,1.649796E4,3.1069826E4,1.3189405E4,2.549267E4,3.8616223E4,1.7006371E4,-1.0598249E4,-1.6253769E4,-1.8023992E4,4.568221E3,7.188264E1,-6.686568E3,-1.0610422E4,-6.488376E3,6.5547617E3,3.6607196E2,7.1443413E3,3.201503E4,-9.479265E3,-3.857155E3,-2.938829E2,-7.0105933E3,1.9165832E4,4.504746E4,9.087545E3,1.8598746E4,2.3112225E4,3.3966395E4,1.8691799E4,4.582902E4,-6.5068097E2,-7.5947983E3,1.0915463E4,3.41606E4,4.7860337E3,1.8355465E4,2.0137324E4,1.1140136E4,2.4270209E4,2.6244758E3,2.468485E4,3.8591184E4,3.9445695E4,5.743397E4,-1.7927863E4,8.013375E3,1.593126E4,4.6419023E4,1.9067334E4,3.0680707E4,2.231242E4,8.53488E2,1.6229674E4,3.9658914E4],"categories":[],"categories_nodes":[],"categories_segments":[],"categories_sizes":[],"default_left":[0,0,0,0,0,0,0,0,0,0,0,0,0,0,0,0,0,0,0,0,0,0,0,0,0,0,0,0,0,0,0,0,0,0,0,0,0,0,0,0,0,0,0,0,0,0,0,0,0,0,0,0,0,0,0,0,0,0,0,0,0,0,0,0,0,0,0,0,0,0,0,0,0,0,0,0,0,0,0,0,0,0,0,0,0,0,0,0,0,0,0,0,0,0,0,0,0,0,0,0,0,0,0,0,0,0,0,0,0,0,0,0,0,0,0,0,0,0,0,0,0,0,0,0,0,0,0],"id":5,"left_children":[1,3,5,7,9,11,13,15,17,19,21,23,25,27,29,31,33,35,37,39,41,43,45,47,49,51,53,55,57,59,61,63,65,67,69,71,73,75,77,79,81,83,85,87,89,91,93,95,97,99,101,103,105,107,109,111,113,115,117,119,121,123,125,-1,-1,-1,-1,-1,-1,-1,-1,-1,-1,-1,-1,-1,-1,-1,-1,-1,-1,-1,-1,-1,-1,-1,-1,-1,-1,-1,-1,-1,-1,-1,-1,-1,-1,-1,-1,-1,-1,-1,-1,-1,-1,-1,-1,-1,-1,-1,-1,-1,-1,-1,-1,-1,-1,-1,-1,-1,-1,-1,-1,-1,-1,-1,-1],"loss_changes":[2.4474146E14,6.013892E13,3.4058285E13,1.3974439E13,4.3178036E13,2.7141928E13,5.4755884E12,3.5501328E12,2.5917716E12,9.143566E12,9.542386E12,5.391736E12,7.0850204E12,7.776575E11,3.9630552E12,1.5312867E12,1.734211E12,2.5176918E12,1.3192386E12,2.1056161E12,5.473483E12,4.192764E12,5.283168E12,3.224866E12,2.4398434E12,6.3031057E12,5.4570516E12,6.779442E11,5.2725966E11,2.2546984E12,1.3837009E12,8.838872E11,1.1769479E10,3.2926345E11,9.6064084E11,1.489562E12,7.40745E11,9.135886E11,9.022582E11,1.8919792E12,2.2137327E11,4.6003766E12,3.6183002E12,3.4836185E12,5.730468E11,2.3670303E12,3.6538396E12,1.7469591E12,1.4812384E12,1.4342297E12,2.4994466E12,1.00156965E12,1.8524657E12,2.0043347E12,2.3077375E12,3.4496394E11,1.0341644E12,3.8601648E11,6.401821E10,1.6946666E12,1.1235408E12,4.05752E11,1.630867E12,0E0,0E0,0E0,0E0,0E0,0E0,0E0,0E0,0E0,0E0,0E0,0E0,0E0,0E0,0E0,0E0,0E0,0E0,0E0,0E0,0E0,0E0,0E0,0E0,0E0,0E0,0E0,0E0,0E0,0E0,0E0,0E0,0E0,0E0,0E0,0E0,0E0,0E0,0E0,0E0,0E0,0E0,0E0,0E0,0E0,0E0,0E0,0E0,0E0,0E0,0E0,0E0,0E0,0E0,0E0,0E0,0E0,0E0,0E0,0E0,0E0,0E0,0E0,0E0],"parents":[2147483647,0,0,1,1,2,2,3,3,4,4,5,5,6,6,7,7,8,8,9,9,10,10,11,11,12,12,13,13,14,14,15,15,16,16,17,17,18,18,19,19,20,20,21,21,22,22,23,23,24,24,25,25,26,26,27,27,28,28,29,29,30,30,31,31,32,32,33,33,34,34,35,35,36,36,37,37,38,38,39,39,40,40,41,41,42,42,43,43,44,44,45,45,46,46,47,47,48,48,49,49,50,50,51,51,52,52,53,53,54,54,55,55,56,56,57,57,58,58,59,59,60,60,61,61,62,62],"right_children":[2,4,6,8,10,12,14,16,18,20,22,24,26,28,30,32,34,36,38,40,42,44,46,48,50,52,54,56,58,60,62,64,66,68,70,72,74,76,78,80,82,84,86,88,90,92,94,96,98,100,102,104,106,108,110,112,114,116,118,120,122,124,126,-1,-1,-1,-1,-1,-1,-1,-1,-1,-1,-1,-1,-1,-1,-1,-1,-1,-1,-1,-1,-1,-1,-1,-1,-1,-1,-1,-1,-1,-1,-1,-1,-1,-1,-1,-1,-1,-1,-1,-1,-1,-1,-1,-1,-1,-1,-1,-1,-1,-1,-1,-1,-1,-1,-1,-1,-1,-1,-1,-1,-1,-1,-1,-1],"split_conditions":[6.113311E-1,-1.1387751E0,2.0822997E0,-2.2211081E-1,-2.6386318E-1,-3.3198914E-1,-3.9252976E-1,-7.5525665E-1,-1.2072552E-1,-1.0716113E0,-5.8204796E-2,1.456664E0,8.116028E-1,2.8129666E0,3.3252363E0,5.4341245E0,-4.7894037E-1,5.9481E-1,1.6199206E0,5.4341245E0,2.0273414E-2,1.6304594E1,8.116028E-1,-1.1702473E0,1.2398279E0,4.860029E-1,1.1332359E0,1.456664E0,6.4055333E0,2.4733176E0,8.116028E-1,5.547522E0,-1.4581093E0,-1.3962659E0,1.7175598E0,1.691759E0,2.8030596E0,3.202965E-1,-2.0423721E-1,8.5364324E-1,8.908576E0,-9.745195E-1,2.5048552E-2,-8.962666E-1,1.6789135E0,-1.0054814E-1,3.8850956E0,1.6789135E0,9.508039E-1,1.1926528E0,1.7345388E1,5.0191607E0,1.3638816E0,4.523912E0,-1.0199275E0,6.081274E-1,-9.8323226E-2,1.3505294E0,-5.290251E-2,1.8223328E1,-9.003768E-1,9.122329E-1,7.874818E-3,-2.4975078E3,3.3743496E3,-1.0419423E4,-1.562695E4,9.979728E2,-4.365986E3,5.53025E3,2.0232244E4,7.5108413E3,2.1209809E4,1.649796E4,3.1069826E4,1.3189405E4,2.549267E4,3.8616223E4,1.7006371E4,-1.0598249E4,-1.6253769E4,-1.8023992E4,4.568221E3,7.188264E1,-6.686568E3,-1.0610422E4,-6.488376E3,6.5547617E3,3.6607196E2,7.1443413E3,3.201503E4,-9.479265E3,-3.857155E3,-2.938829E2,-7.0105933E3,1.9165832E4,4.504746E4,9.087545E3,1.8598746E4,2.3112225E4,3.3966395E4,1.8691799E4,4.582902E4,-6.5068097E2,-7.5947983E3,1.0915463E4,3.41606E4,4.7860337E3,1.8355465E4,2.0137324E4,1.1140136E4,2.4270209E4,2.6244758E3,2.468485E4,3.8591184E4,3.9445695E4,5.743397E4,-1.7927863E4,8.013375E3,1.593126E4,4.6419023E4,1.9067334E4,3.0680707E4,2.231242E4,8.53488E2,1.6229674E4,3.9658914E4],"split_indices":[5,1,5,5,5,1,1,5,6,5,1,4,45,5,5,14,6,0,2,14,1,128,45,1,3,2,5,4,4,10,45,158,1,1,2,2,318,6,0,1,215,2,2,2,2,2,125,2,7,5,259,291,2,301,2,0,6,7,0,208,0,1,1,0,0,0,0,0,0,0,0,0,0,0,0,0,0,0,0,0,0,0,0,0,0,0,0,0,0,0,0,0,0,0,0,0,0,0,0,0,0,0,0,0,0,0,0,0,0,0,0,0,0,0,0,0,0,0,0,0,0,0,0,0,0,0,0],"split_type":[0,0,0,0,0,0,0,0,0,0,0,0,0,0,0,0,0,0,0,0,0,0,0,0,0,0,0,0,0,0,0,0,0,0,0,0,0,0,0,0,0,0,0,0,0,0,0,0,0,0,0,0,0,0,0,0,0,0,0,0,0,0,0,0,0,0,0,0,0,0,0,0,0,0,0,0,0,0,0,0,0,0,0,0,0,0,0,0,0,0,0,0,0,0,0,0,0,0,0,0,0,0,0,0,0,0,0,0,0,0,0,0,0,0,0,0,0,0,0,0,0,0,0,0,0,0,0],"sum_hessian":[4.8298E4,3.771E4,1.0588E4,6.104E3,3.1606E4,8.698E3,1.89E3,3.716E3,2.388E3,1.8173E4,1.3433E4,2.955E3,5.743E3,4.52E2,1.438E3,1.637E3,2.079E3,1.855E3,5.33E2,4.317E3,1.3856E4,4.42E3,9.013E3,1.594E3,1.361E3,1.548E3,4.195E3,3E2,1.52E2,1.14E3,2.98E2,1.551E3,8.6E1,5.6E2,1.519E3,1.652E3,2.03E2,4.5E2,8.3E1,3.647E3,6.7E2,5.005E3,8.851E3,4.355E3,6.5E1,3.009E3,6.004E3,6.01E2,9.93E2,5.13E2,8.48E2,1.251E3,2.97E2,2.209E3,1.986E3,4E1,2.6E2,1.5E2,2E0,7.69E2,3.71E2,5.6E1,2.42E2,1.228E3,3.23E2,1.4E1,7.2E1,4.01E2,1.59E2,1.474E3,4.5E1,1.569E3,8.3E1,1.56E2,4.7E1,3.77E2,7.3E1,4.5E1,3.8E1,2.898E3,7.49E2,6.66E2,4E0,1.397E3,3.608E3,5.262E3,3.589E3,1.293E3,3.062E3,1.2E1,5.3E1,1.417E3,1.592E3,5.04E3,9.64E2,5.74E2,2.7E1,7.85E2,2.08E2,2.52E2,2.61E2,8.13E2,3.5E1,9.89E2,2.62E2,2.58E2,3.9E1,2.095E3,1.14E2,3.47E2,1.639E3,3E1,1E1,9E1,1.7E2,1.31E2,1.9E1,1E0,1E0,7.51E2,1.8E1,1.43E2,2.28E2,4.5E1,1.1E1,3.7E1,2.05E2],"tree_param":{"num_deleted":"0","num_feature":"319","num_nodes":"127","size_leaf_vector":"1"}},{"base_weights":[7.427772E1,-4.541464E4,9.14943E4,3.4553953E4,-6.104565E4,6.0071344E4,1.8698186E5,-2.667496E3,6.929313E4,-9.08516E4,-3.564286E4,1.4027828E5,3.2005201E4,2.7159884E5,1.5370997E5,3.1331855E3,-1.362769E5,9.666951E3,8.397054E4,-8.4897875E4,-1.5287097E5,-2.2643123E4,-6.732093E4,1.2876798E5,2.741059E5,1.0158687E4,6.573179E4,2.6184608E5,4.750709E5,1.2638723E5,2.574524E5,-2.4868838E3,1.1483531E5,-1.4759305E5,-1.0549604E5,1.4182E2,1.7750144E5,7.566325E4,1.5371925E5,-8.854982E4,5.8871807E3,-1.5459192E5,2.936706E4,-1.6687047E4,-8.2122766E4,-1.0498155E5,-3.1212178E4,1.1692418E5,2.4989522E5,3.0704688E5,9.054775E4,5.541727E4,-3.9536028E3,1.10317414E5,4.887734E4,2.4412827E5,3.62683E5,1.6751736E4,4.843957E4,4.1686844E4,1.5431383E5,2.0034033E5,3.028456E5,-4.9149576E2,2.6425713E4,2.8224504E4,4.8489946E3,-1.49521455E4,-5.1470815E3,1.3161969E3,-1.097483E4,-5.740512E2,1.3141833E4,1.2636495E4,2.2326447E4,6.19548E3,1.2541262E4,1.2471081E4,2.7832123E4,-5.8302925E3,-1.0096783E4,-4.2594175E3,7.144812E3,-1.5562002E4,5.468998E3,3.3635633E4,-7.62257E3,-1.388149E3,-1.5395119E4,-9.352844E3,-4.5247803E3,-6.129292E3,-1.1446316E4,-3.6558445E3,2.2146879E4,1.2179753E4,-1.0511203E4,2.0519389E4,3.3898375E4,3.5425016E4,1.6843674E4,1.3271659E3,2.275928E4,8.986993E3,-4.1213174E3,-3.5148918E3,1.6269685E3,1.569432E4,3.7934744E3,1.9417259E2,7.1071836E3,2.6360504E4,1.5411791E4,3.685403E4,-6.2791753E3,2.5957644E3,4.265873E4,2.3835557E4,1.3693155E4,1.7743402E4,3.8142176E4,2.5574729E4,3.89428E4],"categories":[],"categories_nodes":[],"categories_segments":[],"categories_sizes":[],"default_left":[0,0,0,0,0,0,0,0,0,0,0,0,0,0,0,0,0,0,0,0,0,0,0,0,0,0,0,0,0,0,0,0,0,0,0,0,0,0,0,0,0,0,0,0,0,0,0,0,0,0,0,0,0,0,0,0,0,0,0,0,0,0,0,0,0,0,0,0,0,0,0,0,0,0,0,0,0,0,0,0,0,0,0,0,0,0,0,0,0,0,0,0,0,0,0,0,0,0,0,0,0,0,0,0,0,0,0,0,0,0,0,0,0,0,0,0,0,0,0,0,0,0,0],"id":6,"left_children":[1,3,5,7,9,11,13,15,17,19,21,23,25,27,29,31,33,35,37,39,41,43,45,47,49,51,53,55,57,59,61,63,65,67,69,71,73,75,77,79,81,83,85,87,89,91,93,95,97,99,101,103,105,107,109,111,113,-1,-1,115,117,119,121,-1,-1,-1,-1,-1,-1,-1,-1,-1,-1,-1,-1,-1,-1,-1,-1,-1,-1,-1,-1,-1,-1,-1,-1,-1,-1,-1,-1,-1,-1,-1,-1,-1,-1,-1,-1,-1,-1,-1,-1,-1,-1,-1,-1,-1,-1,-1,-1,-1,-1,-1,-1,-1,-1,-1,-1,-1,-1,-1,-1],"loss_changes":[2.0086027E14,4.031678E13,4.814081E13,6.819692E12,2.042402E13,2.7179786E13,1.1143704E13,1.9744174E12,2.3866177E12,4.5704827E12,5.997261E12,4.7861413E12,6.5915585E12,2.0981419E12,8.0572035E12,1.533309E12,2.1351498E10,8.632435E11,1.2567267E12,3.756234E12,3.451367E11,3.6581896E12,5.759889E12,4.1081866E12,1.4657037E12,3.4690108E12,2.6375147E12,1.8249165E12,6.2248714E10,5.341723E12,1.4792723E12,1.5077886E12,1.2858165E12,6.206259E9,1.7590583E10,3.9612695E11,3.965177E10,1.3275601E12,8.0385566E11,4.084472E12,1.3983973E12,2.4002534E11,3.8221326E11,3.6143594E12,3.9111675E11,8.521148E11,2.9327942E12,2.8575374E12,9.499312E11,1.3077861E12,4.1000147E11,4.30167E12,2.613012E12,3.2474493E12,2.6603956E12,1.5617197E12,4.1689914E11,0E0,0E0,3.3913737E12,2.4507905E12,1.0356659E12,1.2420299E12,0E0,0E0,0E0,0E0,0E0,0E0,0E0,0E0,0E0,0E0,0E0,0E0,0E0,0E0,0E0,0E0,0E0,0E0,0E0,0E0,0E0,0E0,0E0,0E0,0E0,0E0,0E0,0E0,0E0,0E0,0E0,0E0,0E0,0E0,0E0,0E0,0E0,0E0,0E0,0E0,0E0,0E0,0E0,0E0,0E0,0E0,0E0,0E0,0E0,0E0,0E0,0E0,0E0,0E0,0E0,0E0,0E0,0E0,0E0,0E0],"parents":[2147483647,0,0,1,1,2,2,3,3,4,4,5,5,6,6,7,7,8,8,9,9,10,10,11,11,12,12,13,13,14,14,15,15,16,16,17,17,18,18,19,19,20,20,21,21,22,22,23,23,24,24,25,25,26,26,27,27,28,28,29,29,30,30,31,31,32,32,33,33,34,34,35,35,36,36,37,37,38,38,39,39,40,40,41,41,42,42,43,43,44,44,45,45,46,46,47,47,48,48,49,49,50,50,51,51,52,52,53,53,54,54,55,55,56,56,59,59,60,60,61,61,62,62],"right_children":[2,4,6,8,10,12,14,16,18,20,22,24,26,28,30,32,34,36,38,40,42,44,46,48,50,52,54,56,58,60,62,64,66,68,70,72,74,76,78,80,82,84,86,88,90,92,94,96,98,100,102,104,106,108,110,112,114,-1,-1,116,118,120,122,-1,-1,-1,-1,-1,-1,-1,-1,-1,-1,-1,-1,-1,-1,-1,-1,-1,-1,-1,-1,-1,-1,-1,-1,-1,-1,-1,-1,-1,-1,-1,-1,-1,-1,-1,-1,-1,-1,-1,-1,-1,-1,-1,-1,-1,-1,-1,-1,-1,-1,-1,-1,-1,-1,-1,-1,-1,-1,-1,-1],"split_conditions":[2.3395373E-1,-1.1387751E0,1.456014E0,-5.0313646E-1,-5.6897676E-1,-7.6001376E-1,-3.3198914E-1,5.4341245E0,-5.2248806E-1,5.4341245E0,5.884513E-1,1.6847669E0,7.9439926E-1,1.7345388E1,2.8129666E0,9.241251E0,3.5121548E-1,2.0649841E1,2.8030596E0,4.772882E0,7.2768364E0,4.4287405E0,-8.359635E-2,7.606728E-1,9.699217E0,-9.290085E-1,-8.8806313E-1,2.8129666E0,1.4555828E-3,8.116028E-1,3.106287E0,1.7309941E0,-2.2978836E-1,6.318523E-1,4.0118116E-1,8.588638E0,1.2006323E0,5.547522E0,4.5114687E-1,-9.745195E-1,-3.1155163E-1,1.8480774E1,-4.982014E-1,5.4341245E0,1.6353084E-1,-9.056756E-1,2.1322325E1,1.1083367E1,2.8030596E0,2.096476E0,-8.34623E-2,2.0741406E-1,-5.5786893E-2,1.08632006E-1,-9.227415E-2,2.5779254E0,6.4055333E0,1.6751736E4,4.843957E4,1.3638816E0,-1.036914E0,1.5645627E0,4.8132682E-1,-4.9149576E2,2.6425713E4,2.8224504E4,4.8489946E3,-1.49521455E4,-5.1470815E3,1.3161969E3,-1.097483E4,-5.740512E2,1.3141833E4,1.2636495E4,2.2326447E4,6.19548E3,1.2541262E4,1.2471081E4,2.7832123E4,-5.8302925E3,-1.0096783E4,-4.2594175E3,7.144812E3,-1.5562002E4,5.468998E3,3.3635633E4,-7.62257E3,-1.388149E3,-1.5395119E4,-9.352844E3,-4.5247803E3,-6.129292E3,-1.1446316E4,-3.6558445E3,2.2146879E4,1.2179753E4,-1.0511203E4,2.0519389E4,3.3898375E4,3.5425016E4,1.6843674E4,1.3271659E3,2.275928E4,8.986993E3,-4.1213174E3,-3.5148918E3,1.6269685E3,1.569432E4,3.7934744E3,1.9417259E2,7.1071836E3,2.6360504E4,1.5411791E4,3.685403E4,-6.2791753E3,2.5957644E3,4.265873E4,2.3835557E4,1.3693155E4,1.7743402E4,3.8142176E4,2.5574729E4,3.89428E4],"split_indices":[5,1,5,5,5,1,1,14,6,14,1,2,5,259,5,277,7,90,318,299,6,302,2,0,62,2,2,5,7,45,4,2,2,4,7,100,7,158,7,2,6,220,7,14,1,2,126,147,318,11,6,1,2,1,2,3,4,0,0,2,2,0,6,0,0,0,0,0,0,0,0,0,0,0,0,0,0,0,0,0,0,0,0,0,0,0,0,0,0,0,0,0,0,0,0,0,0,0,0,0,0,0,0,0,0,0,0,0,0,0,0,0,0,0,0,0,0,0,0,0,0,0,0],"split_type":[0,0,0,0,0,0,0,0,0,0,0,0,0,0,0,0,0,0,0,0,0,0,0,0,0,0,0,0,0,0,0,0,0,0,0,0,0,0,0,0,0,0,0,0,0,0,0,0,0,0,0,0,0,0,0,0,0,0,0,0,0,0,0,0,0,0,0,0,0,0,0,0,0,0,0,0,0,0,0,0,0,0,0,0,0,0,0,0,0,0,0,0,0,0,0,0,0,0,0,0,0,0,0,0,0,0,0,0,0,0,0,0,0,0,0,0,0,0,0,0,0,0,0],"sum_hessian":[4.8298E4,3.2251E4,1.6047E4,5.273E3,2.6978E4,1.2075E4,3.972E3,2.546E3,2.727E3,1.2412E4,1.4566E4,3.129E3,8.946E3,1.119E3,2.853E3,2.441E3,1.05E2,5.39E2,2.188E3,1.1327E4,1.085E3,1.0329E4,4.237E3,2.883E3,2.46E2,5.43E3,3.516E3,1.07E3,4.9E1,2.26E3,5.93E2,2.325E3,1.16E2,7.4E1,3.1E1,5.11E2,2.8E1,1.957E3,2.31E2,1.0889E4,4.38E2,1.075E3,1E1,9.39E3,9.39E2,2.073E3,2.164E3,2.628E3,2.55E2,2.08E2,3.8E1,1.29E3,4.14E3,9.63E2,2.553E3,9.13E2,1.57E2,2E0,4.7E1,5.61E2,1.699E3,2.65E2,3.28E2,2.305E3,2E1,3.2E1,8.4E1,7.2E1,2E0,1E0,3E1,4.9E2,2.1E1,1.5E1,1.3E1,1.536E3,4.21E2,1.89E2,4.2E1,3.171E3,7.718E3,2.52E2,1.86E2,1.07E3,5E0,2E0,8E0,9.203E3,1.87E2,7.16E2,2.23E2,3.71E2,1.702E3,2.12E3,4.4E1,2.572E3,5.6E1,1.72E2,8.3E1,1.54E2,5.4E1,2.5E1,1.3E1,9.51E2,3.39E2,1.628E3,2.512E3,5.85E2,3.78E2,8.2E2,1.733E3,7.49E2,1.64E2,1.55E2,2E0,5.4E2,2.1E1,2.89E2,1.41E3,2.37E2,2.8E1,2.15E2,1.13E2],"tree_param":{"num_deleted":"0","num_feature":"319","num_nodes":"123","size_leaf_vector":"1"}},{"base_weights":[7.952012E1,-3.3160367E4,1.0168647E5,3.4556434E4,-4.8401684E4,7.25626E4,1.8035992E5,-6.348908E3,6.657574E4,-7.761091E4,-2.0294662E4,1.5069728E5,4.615377E4,2.728499E5,1.5609672E5,-4.872545E4,1.0199599E4,3.8688926E4,8.964641E4,-7.23761E4,-1.381691E5,-2.3927375E4,1.0374508E5,1.3970658E5,2.67968E5,2.489715E4,7.718013E4,2.0571473E5,3.1133903E5,1.25417984E5,2.277841E5,-3.8424945E4,-1.3241928E5,-1.5792738E3,6.1116785E4,-1.8126791E3,5.30515E4,8.109193E4,1.6312339E5,-7.5271734E4,3.0746275E4,-1.3966722E5,1.6540104E4,1.133134E4,-3.5733562E4,4.1648144E5,9.224678E4,1.2838792E5,2.5470527E5,3.1477312E5,7.615905E4,4.717814E4,-3.1938323E3,1.3028833E5,6.183927E4,2.8117709E4,2.2130688E5,2.131117E5,3.3476012E5,5.7720582E4,1.4861858E5,1.9743702E5,3.110874E5,-5.644925E3,-1.5330933E3,-1.415446E4,-8.805444E3,-8.5110004E2,1.2531242E4,1.918439E4,3.5884294E3,9.039141E3,-3.1182087E3,6.688862E3,-2.3435076E3,6.8315063E3,1.5233338E4,2.8781344E4,9.327145E3,-4.8107954E3,-8.607446E3,-2.378994E3,9.478155E3,-1.3571117E4,-1.9684818E4,2.05883E4,-6.945009E3,4.408132E3,-5.1435464E3,-5.4630625E3,-1.4070043E3,2.1757822E4,5.633245E4,6.7871016E3,2.0618365E4,1.2267823E4,3.2136598E4,2.6924406E4,-4.983246E3,2.1610342E4,3.961572E4,-6.2722736E2,1.5892049E4,6.4021987E3,-2.9431952E2,6.793859E3,-1.2679183E3,4.2102957E4,1.1989478E4,1.6736547E3,7.794697E3,-5.540228E3,3.506382E3,1.9322992E4,3.3970996E4,4.1935664E3,2.8088318E4,2.1478084E4,3.577427E4,1.9822396E3,1.2750902E4,1.703292E4,7.863472E3,2.0374498E4,-1.7113766E4,3.255363E4,-3.4932097E3],"categories":[],"categories_nodes":[],"categories_segments":[],"categories_sizes":[],"default_left":[0,0,0,0,0,0,0,0,0,0,0,0,0,0,0,0,0,0,0,0,0,0,0,0,0,0,0,0,0,0,0,0,0,0,0,0,0,0,0,0,0,0,0,0,0,0,0,0,0,0,0,0,0,0,0,0,0,0,0,0,0,0,0,0,0,0,0,0,0,0,0,0,0,0,0,0,0,0,0,0,0,0,0,0,0,0,0,0,0,0,0,0,0,0,0,0,0,0,0,0,0,0,0,0,0,0,0,0,0,0,0,0,0,0,0,0,0,0,0,0,0,0,0,0,0,0,0],"id":7,"left_children":[1,3,5,7,9,11,13,15,17,19,21,23,25,27,29,31,33,35,37,39,41,43,45,47,49,51,53,55,57,59,61,63,65,67,69,71,73,75,77,79,81,83,85,87,89,91,93,95,97,99,101,103,105,107,109,111,113,115,117,119,121,123,125,-1,-1,-1,-1,-1,-1,-1,-1,-1,-1,-1,-1,-1,-1,-1,-1,-1,-1,-1,-1,-1,-1,-1,-1,-1,-1,-1,-1,-1,-1,-1,-1,-1,-1,-1,-1,-1,-1,-1,-1,-1,-1,-1,-1,-1,-1,-1,-1,-1,-1,-1,-1,-1,-1,-1,-1,-1,-1,-1,-1,-1,-1,-1,-1],"loss_changes":[1.631286E14,3.756367E13,2.7266826E13,8.758793E12,2.4388234E13,1.7926451E13,7.1744577E12,2.0601225E12,2.4098017E12,4.608198E12,6.8250276E12,2.79167E12,4.2829527E12,1.6594596E12,5.579582E12,7.0613454E11,1.267362E12,9.889983E11,1.276571E12,4.0069025E12,2.7070248E11,6.1241683E12,1.511429E12,2.5822778E12,1.6548469E12,2.4142272E12,2.1436322E12,6.7498095E11,8.9950624E11,2.7996916E12,1.867451E12,3.054971E11,2.3972282E10,1.5113028E12,1.3026486E12,1.2105772E12,1.3298015E12,1.6644382E12,1.8283511E12,3.823821E12,1.2839073E12,2.3274822E11,2.0967819E11,7.5895276E12,4.510974E12,3.1554614E11,1.1441395E12,1.9780526E12,8.059596E11,1.1189103E12,2.6023792E11,1.8161399E12,1.1526014E12,1.7354258E12,1.4887488E12,1.4125542E10,6.8567224E11,9.626929E11,8.579323E11,1.2088161E12,2.0089164E12,1.3414957E12,1.02129205E12,0E0,0E0,0E0,0E0,0E0,0E0,0E0,0E0,0E0,0E0,0E0,0E0,0E0,0E0,0E0,0E0,0E0,0E0,0E0,0E0,0E0,0E0,0E0,0E0,0E0,0E0,0E0,0E0,0E0,0E0,0E0,0E0,0E0,0E0,0E0,0E0,0E0,0E0,0E0,0E0,0E0,0E0,0E0,0E0,0E0,0E0,0E0,0E0,0E0,0E0,0E0,0E0,0E0,0E0,0E0,0E0,0E0,0E0,0E0,0E0,0E0,0E0,0E0,0E0],"parents":[2147483647,0,0,1,1,2,2,3,3,4,4,5,5,6,6,7,7,8,8,9,9,10,10,11,11,12,12,13,13,14,14,15,15,16,16,17,17,18,18,19,19,20,20,21,21,22,22,23,23,24,24,25,25,26,26,27,27,28,28,29,29,30,30,31,31,32,32,33,33,34,34,35,35,36,36,37,37,38,38,39,39,40,40,41,41,42,42,43,43,44,44,45,45,46,46,47,47,48,48,49,49,50,50,51,51,52,52,53,53,54,54,55,55,56,56,57,57,58,58,59,59,60,60,61,61,62,62],"right_children":[2,4,6,8,10,12,14,16,18,20,22,24,26,28,30,32,34,36,38,40,42,44,46,48,50,52,54,56,58,60,62,64,66,68,70,72,74,76,78,80,82,84,86,88,90,92,94,96,98,100,102,104,106,108,110,112,114,116,118,120,122,124,126,-1,-1,-1,-1,-1,-1,-1,-1,-1,-1,-1,-1,-1,-1,-1,-1,-1,-1,-1,-1,-1,-1,-1,-1,-1,-1,-1,-1,-1,-1,-1,-1,-1,-1,-1,-1,-1,-1,-1,-1,-1,-1,-1,-1,-1,-1,-1,-1,-1,-1,-1,-1,-1,-1,-1,-1,-1,-1,-1,-1,-1,-1,-1,-1],"split_conditions":[5.053443E-1,-1.0724322E0,1.6358705E0,-4.8707786E-1,-4.3890205E-1,-7.6001376E-1,-7.6001376E-1,-1.0876698E0,-2.9794762E-1,5.4341245E0,4.772882E0,1.6789135E0,1.456664E0,-9.8323226E-2,3.106287E0,5.4341245E0,5.547522E0,-1.4844151E-1,1.6847669E0,4.772882E0,7.2768364E0,-8.962666E-1,-1.6973782E0,7.606728E-1,9.699217E0,1.2398279E0,1.2398279E0,-1.8660724E0,-2.3742366E-1,1.456664E0,4.4916514E-1,-3.053411E-1,-1.2707381E0,9.241251E0,-4.027883E-1,-1.6261569E0,9.2329E0,6.081274E-1,-1.3389089E0,-9.745195E-1,-3.133261E-1,5.0191607E0,-4.982014E-1,1.7186695E-1,2.5048552E-2,-1.1451811E-1,-8.264985E-1,1.7345388E1,8.756872E-1,-2.1676703E-1,-1.5052131E-1,1.1517216E0,-1.0133625E0,-1.6973782E0,8.116028E-1,1.2398279E0,1.3505294E0,-4.8510116E-2,-5.0811726E-1,2.6336658E-1,2.5779254E0,1.7002894E0,5.708496E0,-5.644925E3,-1.5330933E3,-1.415446E4,-8.805444E3,-8.5110004E2,1.2531242E4,1.918439E4,3.5884294E3,9.039141E3,-3.1182087E3,6.688862E3,-2.3435076E3,6.8315063E3,1.5233338E4,2.8781344E4,9.327145E3,-4.8107954E3,-8.607446E3,-2.378994E3,9.478155E3,-1.3571117E4,-1.9684818E4,2.05883E4,-6.945009E3,4.408132E3,-5.1435464E3,-5.4630625E3,-1.4070043E3,2.1757822E4,5.633245E4,6.7871016E3,2.0618365E4,1.2267823E4,3.2136598E4,2.6924406E4,-4.983246E3,2.1610342E4,3.961572E4,-6.2722736E2,1.5892049E4,6.4021987E3,-2.9431952E2,6.793859E3,-1.2679183E3,4.2102957E4,1.1989478E4,1.6736547E3,7.794697E3,-5.540228E3,3.506382E3,1.9322992E4,3.3970996E4,4.1935664E3,2.8088318E4,2.1478084E4,3.577427E4,1.9822396E3,1.2750902E4,1.703292E4,7.863472E3,2.0374498E4,-1.7113766E4,3.255363E4,-3.4932097E3],"split_indices":[5,1,5,5,5,1,1,5,6,14,299,2,4,6,4,14,158,7,2,299,6,2,7,0,62,3,3,1,2,4,6,6,5,277,0,1,120,0,1,2,6,291,7,1,2,5,1,259,0,6,6,0,2,7,45,3,7,7,0,6,3,7,23,0,0,0,0,0,0,0,0,0,0,0,0,0,0,0,0,0,0,0,0,0,0,0,0,0,0,0,0,0,0,0,0,0,0,0,0,0,0,0,0,0,0,0,0,0,0,0,0,0,0,0,0,0,0,0,0,0,0,0,0,0,0,0,0],"split_type":[0,0,0,0,0,0,0,0,0,0,0,0,0,0,0,0,0,0,0,0,0,0,0,0,0,0,0,0,0,0,0,0,0,0,0,0,0,0,0,0,0,0,0,0,0,0,0,0,0,0,0,0,0,0,0,0,0,0,0,0,0,0,0,0,0,0,0,0,0,0,0,0,0,0,0,0,0,0,0,0,0,0,0,0,0,0,0,0,0,0,0,0,0,0,0,0,0,0,0,0,0,0,0,0,0,0,0,0,0,0,0,0,0,0,0,0,0,0,0,0,0,0,0,0,0,0,0],"sum_hessian":[4.8298E4,3.6393E4,1.1905E4,6.686E3,2.9707E4,8.69E3,3.215E3,2.936E3,3.75E3,1.4567E4,1.514E4,2.194E3,6.496E3,6.66E2,2.549E3,8.24E2,2.112E3,1.699E3,2.051E3,1.341E4,1.157E3,1.471E4,4.3E2,2.008E3,1.86E2,3.856E3,2.64E3,2.45E2,4.21E2,1.787E3,7.62E2,7.35E2,8.9E1,1.716E3,3.96E2,4.45E2,1.254E3,1.839E3,2.12E2,1.3044E4,3.66E2,1.146E3,1.1E1,3.69E3,1.102E4,1.4E1,4.16E2,1.83E3,1.78E2,1.49E2,3.7E1,2.15E3,1.706E3,5.9E2,2.05E3,2E1,2.25E2,8.3E1,3.38E2,4.57E2,1.33E3,5.61E2,2.01E2,4.12E2,3.23E2,7.2E1,1.7E1,1.628E3,8.8E1,6.3E1,3.33E2,1.07E2,3.38E2,1.062E3,1.92E2,1.561E3,2.78E2,7.5E1,1.37E2,3.713E3,9.331E3,1.98E2,1.68E2,1.075E3,7.1E1,3E0,8E0,2.425E3,1.265E3,5.885E3,5.135E3,7E0,7E0,3.44E2,7.2E1,1.779E3,5.1E1,1.7E2,8E0,6.9E1,8E1,1.9E1,1.8E1,1.609E3,5.41E2,2E2,1.506E3,1.9E1,5.71E2,5.4E2,1.51E3,1E0,1.9E1,1.84E2,4.1E1,2.4E1,5.9E1,5.6E1,2.82E2,2.97E2,1.6E2,1.014E3,3.16E2,5.52E2,9E0,1.93E2,8E0],"tree_param":{"num_deleted":"0","num_feature":"319","num_nodes":"127","size_leaf_vector":"1"}},{"base_weights":[8.352178E1,-3.7117234E4,7.484665E4,3.002836E4,-4.9539914E4,4.5141633E4,1.4202394E5,-1.420736E4,5.042429E4,-7.78065E4,-3.0959846E4,9.86941E4,1.6099655E4,2.1628616E5,1.1747902E5,-3.4739113E4,1.0274976E4,3.4005781E3,6.3057305E4,-1.0813786E5,-6.825175E4,-1.9842918E4,-5.8124434E4,9.132778E4,2.1790516E5,1.0867009E4,1.19353055E5,4.5977734E4,2.2504803E5,8.390292E4,1.7648136E5,1.4714286E4,-4.8030445E4,1.6642586E5,4.2373345E3,-2.904351E3,1.3684739E5,5.877963E4,1.9482275E5,-8.1229695E4,-1.22397125E5,-4.8751316E4,-8.2528336E4,-2.4212033E4,5.038624E4,-8.225849E4,-1.7479207E4,1.24235805E5,5.858385E4,1.8833616E5,3.922057E5,2.6574025E4,-2.4242256E4,9.3861375E4,2.729888E5,1.6844908E4,1.6353303E5,2.1143302E5,3.2610653E5,8.983773E4,-1.0064844E5,1.218055E5,2.0652602E5,2.179301E2,5.7824383E4,7.1446626E3,-5.2308774E3,2.6240537E4,2.4584353E3,-2.1473804E3,2.2691074E3,3.981552E4,-4.049358E2,-4.662775E3,1.5674917E4,5.167988E3,1.2654726E4,6.373105E3,2.4838209E4,-5.834976E3,-1.1843138E4,-1.431101E4,-8.785674E3,-1.0036426E3,-6.7788486E3,-1.0518369E4,-5.6489126E3,-2.920949E3,4.0072422E3,5.4085516E2,8.416331E3,-1.181742E4,-7.2200703E3,-4.478933E3,3.6214316E3,3.0705493E3,1.355731E4,6.3486105E4,5.605059E3,2.6537191E4,1.2695409E4,2.9561125E3,4.1539664E4,3.5026833E3,-2.6853752E3,-3.6069224E3,1.0065116E4,6.8312007E3,1.1763991E4,3.1212568E4,-1.3384097E4,-6.9777495E3,2.8020232E3,2.074209E4,2.390211E3,2.459116E4,1.7633945E4,3.328198E4,-8.245513E3,1.5177164E4,7.3819663E3,-2.3532683E3,-1.4707689E4,1.096193E4,3.2944184E4,1.2132101E4,2.3150963E4],"categories":[],"categories_nodes":[],"categories_segments":[],"categories_sizes":[],"default_left":[0,0,0,0,0,0,0,0,0,0,0,0,0,0,0,0,0,0,0,0,0,0,0,0,0,0,0,0,0,0,0,0,0,0,0,0,0,0,0,0,0,0,0,0,0,0,0,0,0,0,0,0,0,0,0,0,0,0,0,0,0,0,0,0,0,0,0,0,0,0,0,0,0,0,0,0,0,0,0,0,0,0,0,0,0,0,0,0,0,0,0,0,0,0,0,0,0,0,0,0,0,0,0,0,0,0,0,0,0,0,0,0,0,0,0,0,0,0,0,0,0,0,0,0,0,0,0],"id":8,"left_children":[1,3,5,7,9,11,13,15,17,19,21,23,25,27,29,31,33,35,37,39,41,43,45,47,49,51,53,55,57,59,61,63,65,67,69,71,73,75,77,79,81,83,85,87,89,91,93,95,97,99,101,103,105,107,109,111,113,115,117,119,121,123,125,-1,-1,-1,-1,-1,-1,-1,-1,-1,-1,-1,-1,-1,-1,-1,-1,-1,-1,-1,-1,-1,-1,-1,-1,-1,-1,-1,-1,-1,-1,-1,-1,-1,-1,-1,-1,-1,-1,-1,-1,-1,-1,-1,-1,-1,-1,-1,-1,-1,-1,-1,-1,-1,-1,-1,-1,-1,-1,-1,-1,-1,-1,-1,-1],"loss_changes":[1.3433411E14,2.6903793E13,3.201742E13,4.54434E12,1.4291822E13,1.7307007E13,8.942575E12,7.995948E11,2.0474815E12,3.1208096E12,4.958678E12,3.4162858E12,3.897966E12,1.8116499E12,7.315143E12,5.6927243E11,6.837552E11,6.15441E11,1.5199843E12,9.815175E11,2.2819195E12,3.5777387E12,4.6766353E12,3.9656033E12,1.09606706E12,3.7891867E12,1.3372951E12,2.0615312E11,1.5284841E12,2.593894E12,2.1777288E12,1.2984852E12,3.523501E11,3.6112374E11,3.326139E11,3.2260417E11,1.2780772E11,1.2602845E12,5.8097113E11,7.57442E11,1.1943616E12,2.5589963E12,2.7897218E12,3.526663E12,1.03716815E12,1.0722759E12,2.60884E12,1.9448149E12,2.6651583E12,8.931178E11,2.5684188E11,2.1447553E12,3.1410136E12,1.7422195E11,8.219562E11,5.0356834E10,6.8579426E10,1.1980736E12,4.004627E11,2.2576387E12,2.6148589E11,1.1733697E12,1.811134E12,0E0,0E0,0E0,0E0,0E0,0E0,0E0,0E0,0E0,0E0,0E0,0E0,0E0,0E0,0E0,0E0,0E0,0E0,0E0,0E0,0E0,0E0,0E0,0E0,0E0,0E0,0E0,0E0,0E0,0E0,0E0,0E0,0E0,0E0,0E0,0E0,0E0,0E0,0E0,0E0,0E0,0E0,0E0,0E0,0E0,0E0,0E0,0E0,0E0,0E0,0E0,0E0,0E0,0E0,0E0,0E0,0E0,0E0,0E0,0E0,0E0,0E0,0E0,0E0],"parents":[2147483647,0,0,1,1,2,2,3,3,4,4,5,5,6,6,7,7,8,8,9,9,10,10,11,11,12,12,13,13,14,14,15,15,16,16,17,17,18,18,19,19,20,20,21,21,22,22,23,23,24,24,25,25,26,26,27,27,28,28,29,29,30,30,31,31,32,32,33,33,34,34,35,35,36,36,37,37,38,38,39,39,40,40,41,41,42,42,43,43,44,44,45,45,46,46,47,47,48,48,49,49,50,50,51,51,52,52,53,53,54,54,55,55,56,56,57,57,58,58,59,59,60,60,61,61,62,62],"right_children":[2,4,6,8,10,12,14,16,18,20,22,24,26,28,30,32,34,36,38,40,42,44,46,48,50,52,54,56,58,60,62,64,66,68,70,72,74,76,78,80,82,84,86,88,90,92,94,96,98,100,102,104,106,108,110,112,114,116,118,120,122,124,126,-1,-1,-1,-1,-1,-1,-1,-1,-1,-1,-1,-1,-1,-1,-1,-1,-1,-1,-1,-1,-1,-1,-1,-1,-1,-1,-1,-1,-1,-1,-1,-1,-1,-1,-1,-1,-1,-1,-1,-1,-1,-1,-1,-1,-1,-1,-1,-1,-1,-1,-1,-1,-1,-1,-1,-1,-1,-1,-1,-1,-1,-1,-1,-1],"split_conditions":[2.3395373E-1,-1.1702473E0,1.2729459E0,-7.472274E-1,-6.637226E-1,-3.814448E-1,-5.676544E-1,-3.133261E-1,-5.2248806E-1,-1.2418326E0,5.884513E-1,1.6847669E0,4.523912E0,-1.8660724E0,2.172228E0,-1.6539959E0,-2.3742366E-1,2.0649841E1,2.2373745E-1,-9.679938E-1,6.707922E-2,4.772882E0,6.062175E-2,1.0534799E0,-1.5371504E-2,2.691377E-1,-1.2278244E0,5.168156E-1,2.8129666E0,5.708496E0,-5.7437196E-2,1.5869334E0,-5.5654436E-1,-1.2991513E0,-1.0876698E0,-1.397584E0,-6.12335E-1,2.8030596E0,-4.9237844E-1,1.6353084E-1,1.7806594E-1,-9.745195E-1,-4.931788E-2,4.523912E0,-3.3476722E-1,-6.480985E-1,1.2937315E0,-1.8084769E0,-1.1075872E0,5.439622E-1,1.691759E0,3.8850956E0,3.7236402E0,1.456664E0,1.5503923E0,1.2398279E0,2.5779254E0,-1.1387751E0,6.4055333E0,-9.5932406E-1,1.2013594E0,4.7559104E0,8.116028E-1,2.179301E2,5.7824383E4,7.1446626E3,-5.2308774E3,2.6240537E4,2.4584353E3,-2.1473804E3,2.2691074E3,3.981552E4,-4.049358E2,-4.662775E3,1.5674917E4,5.167988E3,1.2654726E4,6.373105E3,2.4838209E4,-5.834976E3,-1.1843138E4,-1.431101E4,-8.785674E3,-1.0036426E3,-6.7788486E3,-1.0518369E4,-5.6489126E3,-2.920949E3,4.0072422E3,5.4085516E2,8.416331E3,-1.181742E4,-7.2200703E3,-4.478933E3,3.6214316E3,3.0705493E3,1.355731E4,6.3486105E4,5.605059E3,2.6537191E4,1.2695409E4,2.9561125E3,4.1539664E4,3.5026833E3,-2.6853752E3,-3.6069224E3,1.0065116E4,6.8312007E3,1.1763991E4,3.1212568E4,-1.3384097E4,-6.9777495E3,2.8020232E3,2.074209E4,2.390211E3,2.459116E4,1.7633945E4,3.328198E4,-8.245513E3,1.5177164E4,7.3819663E3,-2.3532683E3,-1.4707689E4,1.096193E4,3.2944184E4,1.2132101E4,2.3150963E4],"split_indices":[5,1,5,5,5,1,1,6,6,5,1,2,301,1,5,1,2,90,6,2,1,299,2,21,0,0,2,6,5,23,6,2,0,1,5,7,5,318,0,1,2,2,2,301,6,7,1,1,2,315,2,125,297,4,7,3,3,1,4,2,0,4,45,0,0,0,0,0,0,0,0,0,0,0,0,0,0,0,0,0,0,0,0,0,0,0,0,0,0,0,0,0,0,0,0,0,0,0,0,0,0,0,0,0,0,0,0,0,0,0,0,0,0,0,0,0,0,0,0,0,0,0,0,0,0,0,0],"split_type":[0,0,0,0,0,0,0,0,0,0,0,0,0,0,0,0,0,0,0,0,0,0,0,0,0,0,0,0,0,0,0,0,0,0,0,0,0,0,0,0,0,0,0,0,0,0,0,0,0,0,0,0,0,0,0,0,0,0,0,0,0,0,0,0,0,0,0,0,0,0,0,0,0,0,0,0,0,0,0,0,0,0,0,0,0,0,0,0,0,0,0,0,0,0,0,0,0,0,0,0,0,0,0,0,0,0,0,0,0,0,0,0,0,0,0,0,0,0,0,0,0,0,0,0,0,0,0],"sum_hessian":[4.8298E4,3.2251E4,1.6047E4,5.035E3,2.7216E4,1.1128E4,4.919E3,1.589E3,3.446E3,1.0793E4,1.6423E4,3.912E3,7.216E3,1.22E3,3.699E3,8.64E2,7.25E2,7.3E2,2.716E3,2.583E3,8.21E3,1.1655E4,4.768E3,3.686E3,2.26E2,6.869E3,3.47E2,6E1,1.16E3,2.359E3,1.34E3,1.83E2,6.81E2,2.6E1,6.99E2,6.98E2,3.2E1,2.632E3,8.4E1,8.97E2,1.686E3,3.472E3,4.738E3,1.0973E4,6.82E2,2.991E3,1.777E3,1.837E3,1.849E3,1.95E2,3.1E1,4.746E3,2.123E3,2.99E2,4.8E1,4.9E1,1.1E1,1.025E3,1.35E2,2.286E3,7.3E1,4.77E2,8.63E2,1.8E2,3E0,2.3E1,6.58E2,1.5E1,1.1E1,2.92E2,4.07E2,1E0,6.97E2,3E0,2.9E1,2.384E3,2.48E2,2.5E1,5.9E1,5.57E2,3.4E2,1.052E3,6.34E2,1.145E3,2.327E3,2.532E3,2.206E3,1.0182E4,7.91E2,2.93E2,3.89E2,6.52E2,2.339E3,1.178E3,5.99E2,1.99E2,1.638E3,7E0,1.842E3,8.5E1,1.1E2,2E0,2.9E1,4.098E3,6.48E2,1.94E3,1.83E2,1.46E2,1.53E2,4.4E1,4E0,5E0,4.4E1,8E0,3E0,5.14E2,5.11E2,1.33E2,2E0,4.68E2,1.818E3,2.8E1,4.5E1,4.52E2,2.5E1,1.97E2,6.66E2],"tree_param":{"num_deleted":"0","num_feature":"319","num_nodes":"127","size_leaf_vector":"1"}},{"base_weights":[8.547096E1,-2.1984893E4,1.0319106E5,-4.5413453E4,1.2717339E4,8.4546484E4,1.7784023E5,1.2723922E4,-5.6012406E4,6.572534E4,-6.4963267E3,1.4142567E5,5.6019387E4,1.6095177E5,2.6153745E5,-2.5696771E4,2.552619E4,-5.1494273E4,-1.1939001E5,5.788799E4,1.6486317E5,2.9500264E4,-1.8134291E4,1.4992083E5,3.7036537E1,7.9598125E3,7.333745E4,1.08960375E5,1.8845803E5,2.0340069E5,3.053222E5,-3.0299375E4,6.4062527E4,1.9629492E5,2.2095006E4,-7.201399E4,-3.9652246E4,-1.1246345E5,-1.4977534E5,5.020872E4,1.4770483E5,3.154774E5,1.3895831E5,5.710189E4,-3.9893688E4,-4.745906E4,-1.618756E2,1.285292E5,2.0902003E5,8.631724E4,-4.067988E4,-1.7147402E4,1.04323414E5,7.1264555E4,4.7409275E5,1.2021342E5,-6.871875E4,1.8067928E5,4.407702E5,-1.33609795E4,2.2443348E5,3.1569203E5,3.3567957E4,-6.0967627E3,-1.7313422E3,2.3964521E4,7.049041E2,3.0195844E4,6.1646924E3,9.961577E2,6.462651E3,-6.296904E3,-1.0693675E4,-4.303173E3,2.144779E3,-1.1672047E4,-3.3117407E3,-1.684267E4,-1.060845E4,8.230038E3,2.7473025E3,1.1357717E4,2.6146629E4,2.1209092E4,4.5877434E4,2.2641428E4,8.6387E3,6.064651E3,-9.925507E3,-3.6195493E3,-1.6088833E4,-4.9145464E3,2.2462506E4,1.921974E4,-2.633876E2,1.2146874E4,3.022392E4,2.7182166E4,1.4368663E4,-1.6623646E3,1.1102756E4,-3.0356892E3,-1.0438931E4,1.0512403E4,-2.260153E3,8.1368413E3,2.5210865E4,5.837326E3,1.2509167E4,2.5590092E4,6.0123695E4,2.6850264E3,1.4386015E4,-9.185222E3,1.7009975E4,4.120635E3,1.9130734E4,1.2269901E4,4.907522E4,4.4253247E3,-3.2355873E4,2.0601395E4,5.2164973E4,3.2136482E4,-7.6958125E3,1.6874426E4,-5.4251416E3],"categories":[],"categories_nodes":[],"categories_segments":[],"categories_sizes":[],"default_left":[0,0,0,0,0,0,0,0,0,0,0,0,0,0,0,0,0,0,0,0,0,0,0,0,0,0,0,0,0,0,0,0,0,0,0,0,0,0,0,0,0,0,0,0,0,0,0,0,0,0,0,0,0,0,0,0,0,0,0,0,0,0,0,0,0,0,0,0,0,0,0,0,0,0,0,0,0,0,0,0,0,0,0,0,0,0,0,0,0,0,0,0,0,0,0,0,0,0,0,0,0,0,0,0,0,0,0,0,0,0,0,0,0,0,0,0,0,0,0,0,0,0,0,0,0,0,0],"id":9,"left_children":[1,3,5,7,9,11,13,15,17,19,21,23,25,27,29,31,33,35,37,39,41,43,45,47,49,51,53,55,57,59,61,63,65,67,69,71,73,75,77,79,81,83,85,87,89,91,93,95,97,99,101,103,105,107,109,111,113,115,117,119,121,123,125,-1,-1,-1,-1,-1,-1,-1,-1,-1,-1,-1,-1,-1,-1,-1,-1,-1,-1,-1,-1,-1,-1,-1,-1,-1,-1,-1,-1,-1,-1,-1,-1,-1,-1,-1,-1,-1,-1,-1,-1,-1,-1,-1,-1,-1,-1,-1,-1,-1,-1,-1,-1,-1,-1,-1,-1,-1,-1,-1,-1,-1,-1,-1,-1],"loss_changes":[1.0991041E14,3.2345896E13,1.1837551E13,1.4635349E13,1.6331723E13,1.1051706E13,2.362299E12,1.802383E12,5.746016E12,3.3050465E12,4.931306E12,2.7337383E12,3.7788855E12,2.007331E12,6.608189E11,3.8036505E11,1.6058224E12,4.5540327E12,2.6433762E11,2.720455E12,1.1734735E12,5.5109285E12,4.687986E12,2.6874332E12,4.6020965E11,2.9147728E12,2.7391783E12,9.939803E11,1.7378008E12,5.728869E11,4.4029077E11,3.4622407E11,4.4878692E11,7.496638E11,1.390119E12,2.1604818E12,2.4566689E12,3.6498624E11,1.8178166E11,2.6572258E12,1.1777338E12,5.693715E11,1.2126173E12,1.1466163E12,3.606479E11,1.5619284E12,2.6234315E12,1.8998876E12,2.2955761E12,1.0868117E11,5.5363846E10,6.399172E11,8.2419646E11,2.297838E12,3.1775366E11,1.020525E12,1.8136497E11,1.3262096E12,3.6902588E11,2.2878015E11,5.1663602E11,3.6775343E11,9.225229E10,0E0,0E0,0E0,0E0,0E0,0E0,0E0,0E0,0E0,0E0,0E0,0E0,0E0,0E0,0E0,0E0,0E0,0E0,0E0,0E0,0E0,0E0,0E0,0E0,0E0,0E0,0E0,0E0,0E0,0E0,0E0,0E0,0E0,0E0,0E0,0E0,0E0,0E0,0E0,0E0,0E0,0E0,0E0,0E0,0E0,0E0,0E0,0E0,0E0,0E0,0E0,0E0,0E0,0E0,0E0,0E0,0E0,0E0,0E0,0E0,0E0,0E0,0E0,0E0],"parents":[2147483647,0,0,1,1,2,2,3,3,4,4,5,5,6,6,7,7,8,8,9,9,10,10,11,11,12,12,13,13,14,14,15,15,16,16,17,17,18,18,19,19,20,20,21,21,22,22,23,23,24,24,25,25,26,26,27,27,28,28,29,29,30,30,31,31,32,32,33,33,34,34,35,35,36,36,37,37,38,38,39,39,40,40,41,41,42,42,43,43,44,44,45,45,46,46,47,47,48,48,49,49,50,50,51,51,52,52,53,53,54,54,55,55,56,56,57,57,58,58,59,59,60,60,61,61,62,62],"right_children":[2,4,6,8,10,12,14,16,18,20,22,24,26,28,30,32,34,36,38,40,42,44,46,48,50,52,54,56,58,60,62,64,66,68,70,72,74,76,78,80,82,84,86,88,90,92,94,96,98,100,102,104,106,108,110,112,114,116,118,120,122,124,126,-1,-1,-1,-1,-1,-1,-1,-1,-1,-1,-1,-1,-1,-1,-1,-1,-1,-1,-1,-1,-1,-1,-1,-1,-1,-1,-1,-1,-1,-1,-1,-1,-1,-1,-1,-1,-1,-1,-1,-1,-1,-1,-1,-1,-1,-1,-1,-1,-1,-1,-1,-1,-1,-1,-1,-1,-1,-1,-1,-1,-1,-1,-1,-1],"split_conditions":[8.104578E-1,-1.7393497E-1,2.172228E0,-1.2055739E0,-7.6001376E-1,-3.3198914E-1,1.3471137E0,-9.848948E-1,5.4341245E0,1.691759E0,-9.196422E-1,7.212244E0,8.116028E-1,-5.7437196E-2,-2.0543652E-2,9.241251E0,-2.4538873E-1,-8.403673E-1,7.867369E-1,7.606728E-1,-2.0786923E-1,2.0741406E-1,-8.359635E-2,1.0507352E0,1.356134E0,4.860029E-1,2.1322325E1,8.908576E0,2.0558859E1,3.0124977E-1,2.2525541E1,-1.3542428E0,-2.3742366E-1,-1.2837607E0,5.547522E0,8.5364324E-1,1.4872949E0,1.6730105E0,-3.7171274E-2,-1.4122533E0,6.318523E-1,-1.4623308E-1,5.439622E-1,1.8480774E1,5.4341245E0,8.055487E0,-1.6933706E0,1.7345388E1,1.2398279E0,-2.8707916E-1,1.7466749E0,-4.493664E-1,1.3638816E0,2.8030596E0,7.0097536E-1,8.116028E-1,2.8030596E0,6.318523E-1,7.517082E-3,-9.156737E-1,1.7856491E1,6.4055333E0,2.6336658E-1,-6.0967627E3,-1.7313422E3,2.3964521E4,7.049041E2,3.0195844E4,6.1646924E3,9.961577E2,6.462651E3,-6.296904E3,-1.0693675E4,-4.303173E3,2.144779E3,-1.1672047E4,-3.3117407E3,-1.684267E4,-1.060845E4,8.230038E3,2.7473025E3,1.1357717E4,2.6146629E4,2.1209092E4,4.5877434E4,2.2641428E4,8.6387E3,6.064651E3,-9.925507E3,-3.6195493E3,-1.6088833E4,-4.9145464E3,2.2462506E4,1.921974E4,-2.633876E2,1.2146874E4,3.022392E4,2.7182166E4,1.4368663E4,-1.6623646E3,1.1102756E4,-3.0356892E3,-1.0438931E4,1.0512403E4,-2.260153E3,8.1368413E3,2.5210865E4,5.837326E3,1.2509167E4,2.5590092E4,6.0123695E4,2.6850264E3,1.4386015E4,-9.185222E3,1.7009975E4,4.120635E3,1.9130734E4,1.2269901E4,4.907522E4,4.4253247E3,-3.2355873E4,2.0601395E4,5.2164973E4,3.2136482E4,-7.6958125E3,1.6874426E4,-5.4251416E3],"split_indices":[5,5,5,1,1,1,2,5,14,2,2,213,45,6,6,277,2,5,1,0,0,1,2,7,2,2,126,215,262,7,151,5,2,1,158,1,2,6,2,1,4,6,315,220,14,63,0,259,3,6,5,6,2,318,7,45,318,4,2,1,193,4,6,0,0,0,0,0,0,0,0,0,0,0,0,0,0,0,0,0,0,0,0,0,0,0,0,0,0,0,0,0,0,0,0,0,0,0,0,0,0,0,0,0,0,0,0,0,0,0,0,0,0,0,0,0,0,0,0,0,0,0,0,0,0,0,0],"split_type":[0,0,0,0,0,0,0,0,0,0,0,0,0,0,0,0,0,0,0,0,0,0,0,0,0,0,0,0,0,0,0,0,0,0,0,0,0,0,0,0,0,0,0,0,0,0,0,0,0,0,0,0,0,0,0,0,0,0,0,0,0,0,0,0,0,0,0,0,0,0,0,0,0,0,0,0,0,0,0,0,0,0,0,0,0,0,0,0,0,0,0,0,0,0,0,0,0,0,0,0,0,0,0,0,0,0,0,0,0,0,0,0,0,0,0,0,0,0,0,0,0,0,0,0,0,0,0],"sum_hessian":[4.8298E4,3.9783E4,8.515E3,2.3749E4,1.6034E4,6.815E3,1.7E3,3.662E3,2.0087E4,4.265E3,1.1769E4,2.275E3,4.54E3,1.417E3,2.83E2,9.15E2,2.747E3,1.8752E4,1.335E3,3.954E3,3.11E2,2.875E3,8.894E3,2.146E3,1.29E2,1.203E3,3.337E3,4.92E2,9.25E2,1.24E2,1.59E2,8.71E2,4.4E1,5.3E1,2.694E3,6.86E3,1.1892E4,1.091E3,2.44E2,3.644E3,3.1E2,4.4E1,2.67E2,2.057E3,8.18E2,3.379E3,5.515E3,1.578E3,5.68E2,4.1E1,8.8E1,9.55E2,2.48E2,3.321E3,1.6E1,4.63E2,2.9E1,8.99E2,2.6E1,1.1E1,1.13E2,1.53E2,6E0,2.58E2,6.13E2,1E1,3.4E1,2.9E1,2.4E1,2.097E3,5.97E2,5.451E3,1.409E3,1.1269E4,6.23E2,1.035E3,5.6E1,1.69E2,7.5E1,1.51E3,2.134E3,2.4E2,7E1,2.7E1,1.7E1,9.9E1,1.68E2,2.012E3,4.5E1,7.95E2,2.3E1,3.359E3,2E1,6.9E1,5.446E3,1.518E3,6E1,2.88E2,2.8E2,8E0,3.3E1,7.7E1,1.1E1,4E1,9.15E2,2.16E2,3.2E1,2.681E3,6.4E2,7E0,9E0,9.4E1,3.69E2,2.7E1,2E0,6.4E1,8.35E2,4E0,2.2E1,1E1,1E0,1.08E2,5E0,1.51E2,2E0,2E0,4E0],"tree_param":{"num_deleted":"0","num_feature":"319","num_nodes":"127","size_leaf_vector":"1"}},{"base_weights":[8.8822525E1,-3.283498E4,5.68003E4,-6.108127E2,-4.931921E4,2.6108371E4,1.0497272E5,-2.779615E4,1.650915E4,-7.17893E4,-3.6833953E4,7.428813E4,3.7333447E3,7.423221E4,1.4674014E5,-5.2778164E4,-8.572018E3,3.808671E4,-2.051252E3,-7.656215E4,-1.2486946E4,-4.1705508E4,3.1630336E4,1.0236057E5,5.2392992E4,-3.193791E3,5.7778684E4,1.3002979E5,4.9976246E4,2.4385238E5,1.3362205E5,-6.01499E4,7.67886E4,-3.0012635E4,1.4881631E4,2.578351E3,5.075887E4,6.2882316E4,-1.4063588E4,-8.361089E4,-2.7970193E4,3.1872055E4,-7.044151E4,-4.263916E4,2.0458933E5,-9.679952E3,6.393194E4,7.4461305E4,1.6178198E5,4.727334E4,2.4039122E5,-7.924577E3,8.003957E4,4.896878E4,2.7200397E5,1.11728414E5,2.272096E5,4.559433E4,2.3788352E5,1.4842128E5,2.9758944E5,1.382832E5,-8.697699E4,-1.1533068E3,-7.4595493E3,2.010124E4,2.1041953E3,2.935443E3,-4.0927993E3,5.309739E2,1.0660713E4,-3.065136E2,1.5861933E4,5.444422E3,-7.0959736E3,4.821294E3,2.8368463E4,3.8913853E3,-2.8459016E3,-9.908139E3,-5.911261E3,-7.209782E3,-1.783975E3,1.1777608E4,-1.8329115E3,-9.081529E3,-5.0664214E3,-4.7632554E3,4.6319254E2,1.7984508E4,3.16758E4,-7.156945E3,4.0381723E2,4.7018486E3,1.9010637E4,6.104856E3,1.6329058E4,1.3429433E4,2.5521826E4,3.0862693E3,1.1063112E4,1.849592E4,3.403753E4,-1.2199833E3,8.918007E3,2.047163E4,3.1321775E3,6.7645845E3,-2.323673E3,4.265704E4,1.0143732E4,1.522796E4,8.568978E3,1.4582977E4,3.0373016E4,5.2834214E3,-1.3477716E3,2.6744938E4,-2.6507531E4,3.4564574E4,1.1052396E4,1.5520544E4,3.208756E4,1.2536294E4,2.2668426E4,-1.6082437E4,1.1574779E4],"categories":[],"categories_nodes":[],"categories_segments":[],"categories_sizes":[],"default_left":[0,0,0,0,0,0,0,0,0,0,0,0,0,0,0,0,0,0,0,0,0,0,0,0,0,0,0,0,0,0,0,0,0,0,0,0,0,0,0,0,0,0,0,0,0,0,0,0,0,0,0,0,0,0,0,0,0,0,0,0,0,0,0,0,0,0,0,0,0,0,0,0,0,0,0,0,0,0,0,0,0,0,0,0,0,0,0,0,0,0,0,0,0,0,0,0,0,0,0,0,0,0,0,0,0,0,0,0,0,0,0,0,0,0,0,0,0,0,0,0,0,0,0,0,0,0,0],"id":10,"left_children":[1,3,5,7,9,11,13,15,17,19,21,23,25,27,29,31,33,35,37,39,41,43,45,47,49,51,53,55,57,59,61,63,65,67,69,71,73,75,77,79,81,83,85,87,89,91,93,95,97,99,101,103,105,107,109,111,113,115,117,119,121,123,125,-1,-1,-1,-1,-1,-1,-1,-1,-1,-1,-1,-1,-1,-1,-1,-1,-1,-1,-1,-1,-1,-1,-1,-1,-1,-1,-1,-1,-1,-1,-1,-1,-1,-1,-1,-1,-1,-1,-1,-1,-1,-1,-1,-1,-1,-1,-1,-1,-1,-1,-1,-1,-1,-1,-1,-1,-1,-1,-1,-1,-1,-1,-1,-1],"loss_changes":[9.01837E13,1.6232623E13,2.6227407E13,4.814215E12,5.6691303E12,1.168334E13,8.853513E12,1.9191366E12,2.541977E12,2.0426009E12,4.3365098E12,2.107189E12,2.7713405E12,5.3787754E12,3.6949302E12,1.6646375E12,1.1369118E12,1.3205239E12,2.6630375E12,2.2863277E12,1.3879097E12,2.7992114E12,1.1535306E12,2.482964E12,1.8491197E12,2.5844827E12,1.5739031E12,2.1177355E12,2.2740714E12,1.7353136E12,2.6648972E12,1.1544214E12,6.467259E11,7.665044E11,9.476594E11,6.8120176E11,9.7413235E11,1.7127269E12,2.1982528E12,2.2056125E12,3.777972E11,1.3217784E12,8.968654E10,2.8539806E12,7.070692E10,3.2291193E11,1.02607356E12,1.2124537E12,1.1985318E12,1.9544201E12,2.1970289E11,2.5791515E12,2.1377015E12,1.0925787E12,8.2673795E11,1.0597423E12,1.1388815E12,1.1609938E12,1.0077303E12,9.110314E11,6.8293965E11,2.8578352E12,8.270325E11,0E0,0E0,0E0,0E0,0E0,0E0,0E0,0E0,0E0,0E0,0E0,0E0,0E0,0E0,0E0,0E0,0E0,0E0,0E0,0E0,0E0,0E0,0E0,0E0,0E0,0E0,0E0,0E0,0E0,0E0,0E0,0E0,0E0,0E0,0E0,0E0,0E0,0E0,0E0,0E0,0E0,0E0,0E0,0E0,0E0,0E0,0E0,0E0,0E0,0E0,0E0,0E0,0E0,0E0,0E0,0E0,0E0,0E0,0E0,0E0,0E0,0E0,0E0,0E0],"parents":[2147483647,0,0,1,1,2,2,3,3,4,4,5,5,6,6,7,7,8,8,9,9,10,10,11,11,12,12,13,13,14,14,15,15,16,16,17,17,18,18,19,19,20,20,21,21,22,22,23,23,24,24,25,25,26,26,27,27,28,28,29,29,30,30,31,31,32,32,33,33,34,34,35,35,36,36,37,37,38,38,39,39,40,40,41,41,42,42,43,43,44,44,45,45,46,46,47,47,48,48,49,49,50,50,51,51,52,52,53,53,54,54,55,55,56,56,57,57,58,58,59,59,60,60,61,61,62,62],"right_children":[2,4,6,8,10,12,14,16,18,20,22,24,26,28,30,32,34,36,38,40,42,44,46,48,50,52,54,56,58,60,62,64,66,68,70,72,74,76,78,80,82,84,86,88,90,92,94,96,98,100,102,104,106,108,110,112,114,116,118,120,122,124,126,-1,-1,-1,-1,-1,-1,-1,-1,-1,-1,-1,-1,-1,-1,-1,-1,-1,-1,-1,-1,-1,-1,-1,-1,-1,-1,-1,-1,-1,-1,-1,-1,-1,-1,-1,-1,-1,-1,-1,-1,-1,-1,-1,-1,-1,-1,-1,-1,-1,-1,-1,-1,-1,-1,-1,-1,-1,-1,-1,-1,-1,-1,-1,-1],"split_conditions":[1.4723724E-1,-4.109052E-1,1.456664E0,-6.637226E-1,-7.664977E-1,-5.22378E-1,1.5330954E0,1.3187431E0,-1.1702473E0,4.914795E0,4.523912E0,-1.1702473E0,3.7236402E0,-5.026702E-1,-1.1387751E0,9.241251E0,-3.133261E-1,-4.6910703E-1,-8.627865E-1,4.523912E0,-1.0068542E0,2.1322325E1,-2.2453019E-1,-1.0941347E-1,1.6304594E1,4.914795E0,1.5954466E1,1.6199206E0,7.1133976E0,-3.713107E-1,5.708496E0,-8.627865E-1,-2.2978836E-1,-1.6539959E0,1.7175598E0,8.588638E0,1.7027971E1,2.096476E0,3.668763E-2,1.01236165E-1,-4.0034753E-1,2.0273414E-2,-3.0179223E-1,3.7236402E0,1.8327731E0,4.7175044E-1,-1.2135408E0,5.524363E-1,5.547522E0,9.508039E-1,1.7309941E0,7.196159E0,2.0273414E-2,5.014555E-1,-8.3257884E-1,1.2398279E0,-2.1676703E-1,2.5779254E0,1.6503236E0,-5.50491E-1,-3.2123712E-1,3.3252363E0,-6.2579685E-1,-1.1533068E3,-7.4595493E3,2.010124E4,2.1041953E3,2.935443E3,-4.0927993E3,5.309739E2,1.0660713E4,-3.065136E2,1.5861933E4,5.444422E3,-7.0959736E3,4.821294E3,2.8368463E4,3.8913853E3,-2.8459016E3,-9.908139E3,-5.911261E3,-7.209782E3,-1.783975E3,1.1777608E4,-1.8329115E3,-9.081529E3,-5.0664214E3,-4.7632554E3,4.6319254E2,1.7984508E4,3.16758E4,-7.156945E3,4.0381723E2,4.7018486E3,1.9010637E4,6.104856E3,1.6329058E4,1.3429433E4,2.5521826E4,3.0862693E3,1.1063112E4,1.849592E4,3.403753E4,-1.2199833E3,8.918007E3,2.047163E4,3.1321775E3,6.7645845E3,-2.323673E3,4.265704E4,1.0143732E4,1.522796E4,8.568978E3,1.4582977E4,3.0373016E4,5.2834214E3,-1.3477716E3,2.6744938E4,-2.6507531E4,3.4564574E4,1.1052396E4,1.5520544E4,3.208756E4,1.2536294E4,2.2668426E4,-1.6082437E4,1.1574779E4],"split_indices":[5,1,4,5,5,1,5,2,1,245,301,1,297,1,1,277,6,6,2,301,2,126,6,6,128,245,265,2,225,0,23,2,2,1,2,100,244,11,0,2,6,1,6,297,1,12,2,0,158,7,2,303,1,1,0,3,6,3,7,0,6,5,2,0,0,0,0,0,0,0,0,0,0,0,0,0,0,0,0,0,0,0,0,0,0,0,0,0,0,0,0,0,0,0,0,0,0,0,0,0,0,0,0,0,0,0,0,0,0,0,0,0,0,0,0,0,0,0,0,0,0,0,0,0,0,0,0],"split_type":[0,0,0,0,0,0,0,0,0,0,0,0,0,0,0,0,0,0,0,0,0,0,0,0,0,0,0,0,0,0,0,0,0,0,0,0,0,0,0,0,0,0,0,0,0,0,0,0,0,0,0,0,0,0,0,0,0,0,0,0,0,0,0,0,0,0,0,0,0,0,0,0,0,0,0,0,0,0,0,0,0,0,0,0,0,0,0,0,0,0,0,0,0,0,0,0,0,0,0,0,0,0,0,0,0,0,0,0,0,0,0,0,0,0,0,0,0,0,0,0,0,0,0,0,0,0,0],"sum_hessian":[4.8298E4,3.0558E4,1.774E4,1.0342E4,2.0216E4,1.0837E4,6.903E3,3.996E3,6.346E3,7.219E3,1.2997E4,3.436E3,7.401E3,3.978E3,2.925E3,1.737E3,2.259E3,2.934E3,3.412E3,6.681E3,5.38E2,1.2134E4,8.63E2,1.504E3,1.932E3,6.561E3,8.4E2,1.204E3,2.774E3,3.46E2,2.579E3,1.644E3,9.3E1,1.18E3,1.079E3,7.72E2,2.162E3,5.32E2,2.88E3,5.834E3,8.47E2,3.05E2,2.33E2,1.2089E4,4.5E1,3.79E2,4.84E2,1.025E3,4.79E2,1.882E3,5E1,6.209E3,3.52E2,8.08E2,3.2E1,1.015E3,1.89E2,2.712E3,6.2E1,1.26E2,2.2E2,2.526E3,5.3E1,3.77E2,1.267E3,2.8E1,6.5E1,1.83E2,9.97E2,9.78E2,1.01E2,7.46E2,2.6E1,2.099E3,6.3E1,5E2,3.2E1,6.15E2,2.265E3,3.574E3,2.26E3,1.57E2,6.9E2,1.12E2,1.93E2,1.13E2,1.2E2,1.0934E4,1.155E3,3.9E1,6E0,6.8E1,3.11E2,4.28E2,5.6E1,8.92E2,1.33E2,3.72E2,1.07E2,1.496E3,3.86E2,3.4E1,1.6E1,5.948E3,2.61E2,9.8E1,2.54E2,6.42E2,1.66E2,1.6E1,1.6E1,3.95E2,6.2E2,9.3E1,9.6E1,2.416E3,2.96E2,5.9E1,3E0,1.9E1,1.07E2,3.2E1,1.88E2,2.206E3,3.2E2,3.9E1,1.4E1],"tree_param":{"num_deleted":"0","num_feature":"319","num_nodes":"127","size_leaf_vector":"1"}},{"base_weights":[9.067221E1,-2.071329E4,7.4180586E4,1.056548E4,-3.6833227E4,6.099177E4,1.5386958E5,-1.0678234E4,3.9558227E4,-5.114018E4,-1.1179008E4,1.3816766E5,4.796248E4,1.3621384E5,2.3697861E5,-5.903219E3,-9.86684E4,6.012254E4,1.9062586E4,-5.5693492E4,-5.7967085E3,-1.5499945E4,6.2316973E4,7.598675E4,1.6565161E5,2.6058396E4,7.115906E4,1.1156531E5,1.8937628E5,3.0580753E5,1.8824995E5,2.3280488E4,-1.7269553E4,-1.1412091E5,-6.7233984E4,-1.3971286E4,6.783375E4,5.238457E5,1.70051E4,-6.019647E4,1.0143593E3,-3.903028E4,1.3544813E4,-3.8049105E4,-4.621684E3,4.8633184E4,1.8587489E5,1.2212031E5,4.1323896E3,1.3768692E5,2.0676398E5,4.7494496E4,1.9218298E3,8.2058336E4,1.0589138E4,1.9356773E5,8.974337E4,1.9594894E5,-1.1209916E5,5.0303366E5,2.7796875E5,1.5987903E5,2.9319106E5,-3.028784E3,3.4559321E3,-2.2874407E3,5.33498E3,-1.2450344E4,-7.336144E3,3.3733162E3,-7.4246235E3,-2.8956626E3,1.390957E4,6.4748647E3,2.6744938E4,6.2215387E4,5.4305825E3,5.1215513E3,-1.037453E3,-7.7513687E3,-4.1108354E3,3.7654126E3,-6.1349824E3,2.5881206E3,-5.0954365E3,5.717637E3,1.163726E2,-4.2280747E3,1.1282261E4,-6.0574426E2,2.1447574E4,5.4155107E3,-7.1967627E3,1.6794011E2,2.3915045E4,1.0502548E4,2.5688857E4,-1.6757875E3,3.5416547E4,5.8265815E3,1.6198413E4,1.709468E4,2.589614E4,3.0469294E3,1.021312E4,-8.055997E2,7.296255E3,5.653674E3,1.1317281E4,1.4599251E2,1.8953477E4,2.4985402E4,1.3823648E4,1.8000076E4,6.552893E3,1.0788415E4,2.2024748E4,-2.0852422E4,6.056322E3,2.0666387E4,5.7886094E4,2.924681E4,1.1734235E3,1.2553621E4,2.518185E4,3.9211184E4,1.8284264E4],"categories":[],"categories_nodes":[],"categories_segments":[],"categories_sizes":[],"default_left":[0,0,0,0,0,0,0,0,0,0,0,0,0,0,0,0,0,0,0,0,0,0,0,0,0,0,0,0,0,0,0,0,0,0,0,0,0,0,0,0,0,0,0,0,0,0,0,0,0,0,0,0,0,0,0,0,0,0,0,0,0,0,0,0,0,0,0,0,0,0,0,0,0,0,0,0,0,0,0,0,0,0,0,0,0,0,0,0,0,0,0,0,0,0,0,0,0,0,0,0,0,0,0,0,0,0,0,0,0,0,0,0,0,0,0,0,0,0,0,0,0,0,0,0,0,0,0],"id":11,"left_children":[1,3,5,7,9,11,13,15,17,19,21,23,25,27,29,31,33,35,37,39,41,43,45,47,49,51,53,55,57,59,61,63,65,67,69,71,73,75,77,79,81,83,85,87,89,91,93,95,97,99,101,103,105,107,109,111,113,115,117,119,121,123,125,-1,-1,-1,-1,-1,-1,-1,-1,-1,-1,-1,-1,-1,-1,-1,-1,-1,-1,-1,-1,-1,-1,-1,-1,-1,-1,-1,-1,-1,-1,-1,-1,-1,-1,-1,-1,-1,-1,-1,-1,-1,-1,-1,-1,-1,-1,-1,-1,-1,-1,-1,-1,-1,-1,-1,-1,-1,-1,-1,-1,-1,-1,-1,-1],"loss_changes":[7.4447864E13,1.9014718E13,1.1119687E13,7.900131E12,9.13343E12,9.130778E12,2.1731444E12,3.10982E12,2.284954E12,3.298128E12,2.830846E12,2.2295892E12,3.9491302E12,1.6063618E12,8.21164E11,2.330014E12,1.7739468E11,1.5476007E12,2.813966E12,3.7072866E12,9.3835605E11,2.0644777E12,8.2787684E11,1.3387141E12,1.0166049E12,2.0700015E12,2.4919283E12,1.5054521E12,7.987129E11,4.476591E11,4.1757966E11,1.1906929E12,2.0020448E12,9.835512E10,9.312947E10,5.912305E11,1.4927109E12,4.739692E11,2.5370294E12,4.4427494E12,2.4449848E12,4.1696225E11,4.985437E11,1.7534448E12,1.7877474E12,3.015763E11,4.8044114E11,5.3976498E11,1.1685881E12,1.04032476E12,6.399921E11,1.9679847E12,1.3353184E12,2.5346913E12,9.423293E11,5.1982264E11,1.4612536E12,7.97938E11,1.624697E11,1.5004546E11,3.6714892E11,3.6307023E11,2.776092E11,0E0,0E0,0E0,0E0,0E0,0E0,0E0,0E0,0E0,0E0,0E0,0E0,0E0,0E0,0E0,0E0,0E0,0E0,0E0,0E0,0E0,0E0,0E0,0E0,0E0,0E0,0E0,0E0,0E0,0E0,0E0,0E0,0E0,0E0,0E0,0E0,0E0,0E0,0E0,0E0,0E0,0E0,0E0,0E0,0E0,0E0,0E0,0E0,0E0,0E0,0E0,0E0,0E0,0E0,0E0,0E0,0E0,0E0,0E0,0E0,0E0,0E0,0E0,0E0],"parents":[2147483647,0,0,1,1,2,2,3,3,4,4,5,5,6,6,7,7,8,8,9,9,10,10,11,11,12,12,13,13,14,14,15,15,16,16,17,17,18,18,19,19,20,20,21,21,22,22,23,23,24,24,25,25,26,26,27,27,28,28,29,29,30,30,31,31,32,32,33,33,34,34,35,35,36,36,37,37,38,38,39,39,40,40,41,41,42,42,43,43,44,44,45,45,46,46,47,47,48,48,49,49,50,50,51,51,52,52,53,53,54,54,55,55,56,56,57,57,58,58,59,59,60,60,61,61,62,62],"right_children":[2,4,6,8,10,12,14,16,18,20,22,24,26,28,30,32,34,36,38,40,42,44,46,48,50,52,54,56,58,60,62,64,66,68,70,72,74,76,78,80,82,84,86,88,90,92,94,96,98,100,102,104,106,108,110,112,114,116,118,120,122,124,126,-1,-1,-1,-1,-1,-1,-1,-1,-1,-1,-1,-1,-1,-1,-1,-1,-1,-1,-1,-1,-1,-1,-1,-1,-1,-1,-1,-1,-1,-1,-1,-1,-1,-1,-1,-1,-1,-1,-1,-1,-1,-1,-1,-1,-1,-1,-1,-1,-1,-1,-1,-1,-1,-1,-1,-1,-1,-1,-1,-1,-1,-1,-1,-1],"split_conditions":[6.113311E-1,-4.109052E-1,2.2814755E0,-2.3977527E-1,-1.642998E-1,-1.1261942E0,1.356134E0,5.4341245E0,1.0534799E0,4.523912E0,4.523912E0,-4.027883E-1,1.456664E0,2.8129666E0,2.096476E0,-1.4308811E0,-9.8475814E-2,-1.8378508E0,-1.1075872E0,4.914795E0,-3.133261E-1,8.116028E-1,-1.2135408E0,-5.420162E-1,-6.616152E-2,1.2398279E0,2.5779254E0,-1.0470601E0,1.2670114E1,1.1621414E0,1.4004952E0,-1.8378508E0,1.7175598E0,-6.977699E-1,-9.9167377E-1,2.3660213E-1,2.2814755E0,-4.9161178E-1,5.524363E-1,-7.567526E-2,-1.0068542E0,2.751911E-1,5.439622E-1,1.495466E1,2.1322325E1,1.8546852E1,-1.9798754E-1,1.6049138E0,1.691759E0,1.4555828E-3,1.3773268E0,1.100701E0,7.040189E-1,1.3773268E0,1.1588292E1,8.960753E-2,-3.5292253E-1,8.116028E-1,5.0987076E-2,-1.7077018E0,7.184163E0,-1.485066E-2,1.5004265E0,-3.028784E3,3.4559321E3,-2.2874407E3,5.33498E3,-1.2450344E4,-7.336144E3,3.3733162E3,-7.4246235E3,-2.8956626E3,1.390957E4,6.4748647E3,2.6744938E4,6.2215387E4,5.4305825E3,5.1215513E3,-1.037453E3,-7.7513687E3,-4.1108354E3,3.7654126E3,-6.1349824E3,2.5881206E3,-5.0954365E3,5.717637E3,1.163726E2,-4.2280747E3,1.1282261E4,-6.0574426E2,2.1447574E4,5.4155107E3,-7.1967627E3,1.6794011E2,2.3915045E4,1.0502548E4,2.5688857E4,-1.6757875E3,3.5416547E4,5.8265815E3,1.6198413E4,1.709468E4,2.589614E4,3.0469294E3,1.021312E4,-8.055997E2,7.296255E3,5.653674E3,1.1317281E4,1.4599251E2,1.8953477E4,2.4985402E4,1.3823648E4,1.8000076E4,6.552893E3,1.0788415E4,2.2024748E4,-2.0852422E4,6.056322E3,2.0666387E4,5.7886094E4,2.924681E4,1.1734235E3,1.2553621E4,2.518185E4,3.9211184E4,1.8284264E4],"split_indices":[5,1,4,5,5,1,2,14,21,301,301,0,4,5,11,1,7,1,2,245,6,45,2,0,6,3,3,2,52,5,7,1,2,1,2,6,4,1,0,2,2,0,315,170,126,204,6,2,2,7,5,7,6,5,263,1,1,45,2,1,304,6,7,0,0,0,0,0,0,0,0,0,0,0,0,0,0,0,0,0,0,0,0,0,0,0,0,0,0,0,0,0,0,0,0,0,0,0,0,0,0,0,0,0,0,0,0,0,0,0,0,0,0,0,0,0,0,0,0,0,0,0,0,0,0,0,0],"split_type":[0,0,0,0,0,0,0,0,0,0,0,0,0,0,0,0,0,0,0,0,0,0,0,0,0,0,0,0,0,0,0,0,0,0,0,0,0,0,0,0,0,0,0,0,0,0,0,0,0,0,0,0,0,0,0,0,0,0,0,0,0,0,0,0,0,0,0,0,0,0,0,0,0,0,0,0,0,0,0,0,0,0,0,0,0,0,0,0,0,0,0,0,0,0,0,0,0,0,0,0,0,0,0,0,0,0,0,0,0,0,0,0,0,0,0,0,0,0,0,0,0,0,0,0,0,0,0],"sum_hessian":[4.8298E4,3.771E4,1.0588E4,1.2825E4,2.4885E4,9.086E3,1.502E3,7.402E3,5.423E3,1.5975E4,8.91E3,1.311E3,7.775E3,1.241E3,2.61E2,7.022E3,3.8E2,2.706E3,2.717E3,1.4517E4,1.458E3,8.416E3,4.94E2,4.03E2,9.08E2,4E3,3.775E3,8.5E2,3.91E2,1.06E2,1.55E2,1.968E3,5.054E3,2.53E2,1.27E2,2.55E2,2.451E3,1E1,2.707E3,1.3449E4,1.068E3,5.36E2,9.22E2,2.738E3,5.678E3,4.46E2,4.8E1,2.45E2,1.58E2,5.43E2,3.65E2,2.118E3,1.882E3,3.199E3,5.76E2,1.77E2,6.73E2,3.83E2,8E0,1.1E1,9.5E1,1.24E2,3.1E1,3.42E2,1.626E3,4.683E3,3.71E2,2E2,5.3E1,8E0,1.19E2,2.33E2,2.2E1,2.415E3,3.6E1,8E0,2E0,1.203E3,1.504E3,7.05E3,6.399E3,6.73E2,3.95E2,8.3E1,4.53E2,2.03E2,7.19E2,2.664E3,7.4E1,5.642E3,3.6E1,4.27E2,1.9E1,1.1E1,3.7E1,2.19E2,2.6E1,1.5E2,8E0,1.28E2,4.15E2,2.19E2,1.46E2,1.616E3,5.02E2,1.651E3,2.31E2,1.759E3,1.44E3,5.49E2,2.7E1,8.6E1,9.1E1,1.41E2,5.32E2,8.4E1,2.99E2,5E0,3E0,3E0,8E0,9E1,5E0,9.2E1,3.2E1,1.5E1,1.6E1],"tree_param":{"num_deleted":"0","num_feature":"319","num_nodes":"127","size_leaf_vector":"1"}},{"base_weights":[9.425997E1,-1.6338704E4,7.686374E4,-3.2582486E4,1.0782958E4,6.368348E4,1.4051873E5,1.2997702E4,-4.0175875E4,4.27088E4,-7.798952E3,1.0963759E5,4.5576016E4,9.937059E4,1.6911119E5,2.4867436E5,9.904478E3,-3.638851E4,-9.4771984E4,3.711442E4,1.261751E5,-1.2191057E4,6.849162E4,1.05904445E5,3.3521697E5,3.5094066E4,1.0836133E5,6.612666E4,1.390698E5,2.2377028E5,1.3987936E5,2.075721E5,4.4801956E5,-2.2881953E4,2.0183342E4,-6.022808E4,-2.9433717E4,-8.829218E4,-1.320029E5,5.773991E4,1.5037512E4,9.115316E4,2.4444028E5,-1.849981E4,3.7779652E4,5.322063E4,1.6128725E5,1.3481277E5,7.531292E4,8.4660914E4,3.7848066E5,4.8871086E4,-2.3069918E4,9.8129055E4,4.027138E5,1.08342836E5,2.6962225E4,1.5094455E5,-1.10036336E5,2.690458E5,1.7348225E5,3.6703156E4,1.7046238E5,2.1886799E4,-4.6998337E2,2.417097E3,5.146325E4,-2.3837178E3,2.509347E4,1.5728104E3,1.1480031E4,-6.17972E3,1.8403484E4,-2.6993855E3,-9.3053955E3,-8.956964E3,5.5726284E3,-1.3953249E4,-5.174107E3,1.8544678E3,7.0736753E3,4.079128E4,1.3444061E3,4.705892E3,1.5463783E4,3.3973586E4,1.957953E4,-6.652321E2,-4.2111587E3,2.6654771E4,3.1392688E3,1.9779717E3,8.102911E3,2.7489318E4,1.0911827E4,6.890048E3,1.635805E4,4.3663794E3,1.3988322E4,1.3443854E4,-8.211359E3,1.9755295E4,4.4426324E4,1.1699213E4,3.2191758E3,4.5932285E2,-5.762388E3,1.2794905E4,-2.9004446E3,4.4854254E4,1.3885619E4,9.480863E3,2.6510822E4,-2.3102659E3,6.3239966E3,3.0707375E4,1.2378448E4,9.732913E3,-1.8197889E4,3.3286277E4,2.1257467E4,1.0886527E4,2.6213158E4,-9.327362E3,6.404355E3,1.7748959E4,-9.145179E3],"categories":[],"categories_nodes":[],"categories_segments":[],"categories_sizes":[],"default_left":[0,0,0,0,0,0,0,0,0,0,0,0,0,0,0,0,0,0,0,0,0,0,0,0,0,0,0,0,0,0,0,0,0,0,0,0,0,0,0,0,0,0,0,0,0,0,0,0,0,0,0,0,0,0,0,0,0,0,0,0,0,0,0,0,0,0,0,0,0,0,0,0,0,0,0,0,0,0,0,0,0,0,0,0,0,0,0,0,0,0,0,0,0,0,0,0,0,0,0,0,0,0,0,0,0,0,0,0,0,0,0,0,0,0,0,0,0,0,0,0,0,0,0,0,0,0,0],"id":12,"left_children":[1,3,5,7,9,11,13,15,17,19,21,23,25,27,29,31,33,35,37,39,41,43,45,47,49,51,53,55,57,59,61,63,65,67,69,71,73,75,77,79,81,83,85,87,89,91,93,95,97,99,101,103,105,107,109,111,113,115,117,119,121,123,125,-1,-1,-1,-1,-1,-1,-1,-1,-1,-1,-1,-1,-1,-1,-1,-1,-1,-1,-1,-1,-1,-1,-1,-1,-1,-1,-1,-1,-1,-1,-1,-1,-1,-1,-1,-1,-1,-1,-1,-1,-1,-1,-1,-1,-1,-1,-1,-1,-1,-1,-1,-1,-1,-1,-1,-1,-1,-1,-1,-1,-1,-1,-1,-1],"loss_changes":[6.093287E13,1.7527528E13,7.135891E12,8.6123846E12,8.841436E12,5.867221E12,1.7009245E12,2.5884057E12,4.406869E12,2.555561E12,3.157588E12,1.643689E12,3.3288786E12,7.8397886E11,1.342796E12,2.8390667E11,1.1830204E12,3.305422E12,3.2199252E11,2.3396158E12,1.4025244E12,2.809287E12,7.183786E11,1.7258261E12,3.1483652E11,3.4796858E12,2.1410926E12,5.4103848E11,8.241629E11,6.318174E11,1.7702553E12,9.694059E10,1.851974E11,2.2516587E11,1.1245521E12,1.7376603E12,2.3947788E12,2.222698E11,1.1546106E11,1.3522017E12,1.549568E12,7.4013816E11,2.9506247E11,2.2127452E12,1.451305E12,4.0943105E11,3.9672716E11,1.9000449E12,1.9475674E12,6.0849058E10,2.3358551E11,3.9843419E12,7.955497E11,2.6612864E12,2.2793159E11,3.1009315E11,3.1385443E11,1.06875375E12,2.1165107E11,4.8783426E11,7.963311E11,4.6794375E11,8.150193E11,0E0,0E0,0E0,0E0,0E0,0E0,0E0,0E0,0E0,0E0,0E0,0E0,0E0,0E0,0E0,0E0,0E0,0E0,0E0,0E0,0E0,0E0,0E0,0E0,0E0,0E0,0E0,0E0,0E0,0E0,0E0,0E0,0E0,0E0,0E0,0E0,0E0,0E0,0E0,0E0,0E0,0E0,0E0,0E0,0E0,0E0,0E0,0E0,0E0,0E0,0E0,0E0,0E0,0E0,0E0,0E0,0E0,0E0,0E0,0E0,0E0,0E0,0E0,0E0],"parents":[2147483647,0,0,1,1,2,2,3,3,4,4,5,5,6,6,7,7,8,8,9,9,10,10,11,11,12,12,13,13,14,14,15,15,16,16,17,17,18,18,19,19,20,20,21,21,22,22,23,23,24,24,25,25,26,26,27,27,28,28,29,29,30,30,31,31,32,32,33,33,34,34,35,35,36,36,37,37,38,38,39,39,40,40,41,41,42,42,43,43,44,44,45,45,46,46,47,47,48,48,49,49,50,50,51,51,52,52,53,53,54,54,55,55,56,56,57,57,58,58,59,59,60,60,61,61,62,62],"right_children":[2,4,6,8,10,12,14,16,18,20,22,24,26,28,30,32,34,36,38,40,42,44,46,48,50,52,54,56,58,60,62,64,66,68,70,72,74,76,78,80,82,84,86,88,90,92,94,96,98,100,102,104,106,108,110,112,114,116,118,120,122,124,126,-1,-1,-1,-1,-1,-1,-1,-1,-1,-1,-1,-1,-1,-1,-1,-1,-1,-1,-1,-1,-1,-1,-1,-1,-1,-1,-1,-1,-1,-1,-1,-1,-1,-1,-1,-1,-1,-1,-1,-1,-1,-1,-1,-1,-1,-1,-1,-1,-1,-1,-1,-1,-1,-1,-1,-1,-1,-1,-1,-1,-1,-1,-1,-1],"split_conditions":[8.104578E-1,-1.2254742E-1,2.2814755E0,-1.2991513E0,-3.3198914E-1,-5.22378E-1,-9.063399E-2,-2.2978836E-1,5.4341245E0,1.6847669E0,4.523912E0,1.6304594E1,3.7236402E0,1.3505294E0,-6.484704E-2,6.318523E-1,-9.848948E-1,-1.005771E0,-4.8707786E-1,1.0534799E0,2.8030596E0,3.7236402E0,-1.2278244E0,1.0534799E0,1.663902E0,9.749627E-1,1.5954466E1,-5.867385E-4,1.7002894E0,1.0534799E0,8.116028E-1,-2.0605218E-1,-1.3691936E0,1.5004265E0,1.6847669E0,2.3677092E1,5.792057E0,7.2768364E0,1.0507352E0,-4.9237844E-1,-1.1075872E0,-1.911116E-1,-1.2476869E0,2.691377E-1,-1.7973096E0,-1.6693486E-1,-1.0880739E-1,-4.9237844E-1,2.8030596E0,1.100701E0,6.318523E-1,-9.679938E-1,2.9896483E-1,4.9377617E-1,3.0272776E-1,-7.2874606E-2,-2.3219686E-2,-1.0199275E0,3.106287E0,2.2814267E0,1.4872949E0,-6.496504E-1,1.2670114E1,2.1886799E4,-4.6998337E2,2.417097E3,5.146325E4,-2.3837178E3,2.509347E4,1.5728104E3,1.1480031E4,-6.17972E3,1.8403484E4,-2.6993855E3,-9.3053955E3,-8.956964E3,5.5726284E3,-1.3953249E4,-5.174107E3,1.8544678E3,7.0736753E3,4.079128E4,1.3444061E3,4.705892E3,1.5463783E4,3.3973586E4,1.957953E4,-6.652321E2,-4.2111587E3,2.6654771E4,3.1392688E3,1.9779717E3,8.102911E3,2.7489318E4,1.0911827E4,6.890048E3,1.635805E4,4.3663794E3,1.3988322E4,1.3443854E4,-8.211359E3,1.9755295E4,4.4426324E4,1.1699213E4,3.2191758E3,4.5932285E2,-5.762388E3,1.2794905E4,-2.9004446E3,4.4854254E4,1.3885619E4,9.480863E3,2.6510822E4,-2.3102659E3,6.3239966E3,3.0707375E4,1.2378448E4,9.732913E3,-1.8197889E4,3.3286277E4,2.1257467E4,1.0886527E4,2.6213158E4,-9.327362E3,6.404355E3,1.7748959E4,-9.145179E3],"split_indices":[5,5,4,1,1,1,6,2,14,2,301,128,297,7,1,4,5,5,5,21,318,297,2,21,2,0,265,1,7,21,45,5,1,7,2,59,181,6,7,0,2,6,7,0,7,6,1,0,318,7,4,2,1,1,2,1,2,2,4,5,2,2,52,0,0,0,0,0,0,0,0,0,0,0,0,0,0,0,0,0,0,0,0,0,0,0,0,0,0,0,0,0,0,0,0,0,0,0,0,0,0,0,0,0,0,0,0,0,0,0,0,0,0,0,0,0,0,0,0,0,0,0,0,0,0,0,0],"split_type":[0,0,0,0,0,0,0,0,0,0,0,0,0,0,0,0,0,0,0,0,0,0,0,0,0,0,0,0,0,0,0,0,0,0,0,0,0,0,0,0,0,0,0,0,0,0,0,0,0,0,0,0,0,0,0,0,0,0,0,0,0,0,0,0,0,0,0,0,0,0,0,0,0,0,0,0,0,0,0,0,0,0,0,0,0,0,0,0,0,0,0,0,0,0,0,0,0,0,0,0,0,0,0,0,0,0,0,0,0,0,0,0,0,0,0,0,0,0,0,0,0,0,0,0,0,0,0],"sum_hessian":[4.8298E4,3.9783E4,8.515E3,2.4881E4,1.4902E4,7.056E3,1.459E3,3.553E3,2.1328E4,5.482E3,9.42E3,1.993E3,5.063E3,6E2,8.59E2,4.5E1,3.508E3,1.9946E4,1.382E3,5.139E3,3.43E2,8.908E3,5.12E2,1.962E3,3.1E1,4.34E3,7.23E2,3.28E2,2.72E2,2.97E2,5.62E2,3.9E1,6E0,8.37E2,2.671E3,4.503E3,1.5443E4,1.18E3,2.02E2,2.656E3,2.483E3,2.66E2,7.7E1,7.91E3,9.98E2,4.41E2,7.1E1,1.007E3,9.55E2,5E0,2.6E1,3.509E3,8.31E2,7E2,2.3E1,1.57E2,1.71E2,2.6E2,1.2E1,1.54E2,1.43E2,1.29E2,4.33E2,3.7E1,2E0,1E0,5E0,8.35E2,2E0,2.552E3,1.19E2,4.475E3,2.8E1,1.4874E4,5.69E2,1.17E3,1E1,1.84E2,1.8E1,6.62E2,1.994E3,9E0,2.474E3,1.58E2,1.08E2,2.4E1,5.3E1,5.268E3,2.642E3,2.6E1,9.72E2,2.01E2,2.4E2,2.1E1,5E1,3.07E2,7E2,6.42E2,3.13E2,4E0,1E0,8E0,1.8E1,6.89E2,2.82E3,4.62E2,3.69E2,5.67E2,1.33E2,1.9E1,4E0,1.46E2,1.1E1,7.2E1,9.9E1,3.7E1,2.23E2,3E0,9E0,7E1,8.4E1,8.4E1,5.9E1,2.2E1,1.07E2,4.22E2,1.1E1],"tree_param":{"num_deleted":"0","num_feature":"319","num_nodes":"127","size_leaf_vector":"1"}},{"base_weights":[9.824902E1,-2.4851846E4,4.1558902E4,-2.5565294E2,-3.7019473E4,1.8584951E4,7.860896E4,-2.5668172E4,1.1154011E4,-5.4779207E4,-2.7487535E4,5.1756676E4,-1.4854755E2,5.873174E4,1.16419266E5,8.421123E3,-3.7645547E4,2.062624E4,-2.6674346E4,-5.6044066E4,1.1314389E5,-3.1216283E4,2.5288535E4,4.696804E4,1.3638234E5,1.2346521E4,-2.8697992E4,1.0025524E5,3.89069E4,1.2083641E5,-8.467587E4,-2.4591508E4,6.1771348E4,-4.9507086E4,8.1212417E3,1.9012512E4,2.2535277E5,-3.5130453E4,5.6311414E4,-6.0131805E4,-4.4008765E3,-4.494413E4,2.5589906E5,-3.4606164E4,2.0431031E4,-1.4880279E4,4.6244707E4,6.7928195E4,2.5818385E4,9.828454E4,2.3157702E5,1.0845839E4,2.5964755E5,-3.7195312E4,6.708194E4,8.678595E4,1.8254588E5,3.563897E4,1.833251E5,8.513281E4,1.4356317E5,-1.5692472E5,8.769186E4,-2.8151133E3,4.220601E4,3.1829295E4,4.4751753E3,-5.028098E3,4.354587E4,-1.156411E3,5.3492183E3,2.2768838E3,-5.5713457E3,5.7658276E3,3.5570848E4,-1.5548284E3,-6.054078E3,7.083252E1,1.1019273E4,-6.61323E3,-1.9035189E3,3.2315945E3,-5.170522E3,4.6339077E3,-5.4481855E3,1.1574197E4,2.9710656E4,-5.059271E3,-1.882886E3,4.6974297E3,-4.281894E3,-7.3585913E3,-3.864763E1,3.5672068E3,1.2125397E4,6.1766274E3,2.188522E4,5.090866E4,2.3769983E3,1.7849428E4,2.2274092E2,2.6846879E4,1.0054429E4,5.7204346E3,3.5913342E2,1.632928E4,3.2372514E4,-3.9866199E3,1.2856046E4,6.491013E2,8.692902E3,1.237967E4,6.214394E3,4.089886E4,1.6390428E4,2.1142595E3,6.5254023E3,2.0759133E4,-2.568324E4,1.2103566E4,4.398569E3,1.3919445E4,3.426514E4,-1.9583979E4,7.6776377E3,-8.316841E3,2.2982412E4],"categories":[],"categories_nodes":[],"categories_segments":[],"categories_sizes":[],"default_left":[0,0,0,0,0,0,0,0,0,0,0,0,0,0,0,0,0,0,0,0,0,0,0,0,0,0,0,0,0,0,0,0,0,0,0,0,0,0,0,0,0,0,0,0,0,0,0,0,0,0,0,0,0,0,0,0,0,0,0,0,0,0,0,0,0,0,0,0,0,0,0,0,0,0,0,0,0,0,0,0,0,0,0,0,0,0,0,0,0,0,0,0,0,0,0,0,0,0,0,0,0,0,0,0,0,0,0,0,0,0,0,0,0,0,0,0,0,0,0,0,0,0,0,0,0,0,0],"id":13,"left_children":[1,3,5,7,9,11,13,15,17,19,21,23,25,27,29,31,33,35,37,39,41,43,45,47,49,51,53,55,57,59,61,63,65,67,69,71,73,75,77,79,81,83,85,87,89,91,93,95,97,99,101,103,105,107,109,111,113,115,117,119,121,123,125,-1,-1,-1,-1,-1,-1,-1,-1,-1,-1,-1,-1,-1,-1,-1,-1,-1,-1,-1,-1,-1,-1,-1,-1,-1,-1,-1,-1,-1,-1,-1,-1,-1,-1,-1,-1,-1,-1,-1,-1,-1,-1,-1,-1,-1,-1,-1,-1,-1,-1,-1,-1,-1,-1,-1,-1,-1,-1,-1,-1,-1,-1,-1,-1],